{"learner":{"attributes":{"best_iteration":"99","best_ntree_limit":"100","scikit_learn":"{\"n_estimators\": 100, \"objective\": \"reg:squarederror\", \"max_depth\": 5, \"max_leaves\": null, \"max_bin\": null, \"grow_policy\": null, \"learning_rate\": 0.1, \"verbosity\": null, \"booster\": null, \"tree_method\": null, \"gamma\": null, \"min_child_weight\": null, \"max_delta_step\": null, \"subsample\": null, \"sampling_method\": null, \"colsample_bytree\": null, \"colsample_bylevel\": null, \"colsample_bynode\": null, \"reg_alpha\": null, \"reg_lambda\": null, \"scale_pos_weight\": null, \"base_score\": null, \"missing\": NaN, \"num_parallel_tree\": null, \"random_state\": null, \"n_jobs\": null, \"monotone_constraints\": null, \"interaction_constraints\": null, \"importance_type\": null, \"gpu_id\": null, \"validate_parameters\": null, \"predictor\": null, \"enable_categorical\": false, \"feature_types\": null, \"max_cat_to_onehot\": null, \"max_cat_threshold\": null, \"eval_metric\": null, \"early_stopping_rounds\": null, \"callbacks\": null, \"_estimator_type\": \"regressor\"}"},"feature_names":["store_nbr","onpromotion","cluster","dcoilwtico","month","day","family_AUTOMOTIVE","family_BABY CARE","family_BEAUTY","family_BEVERAGES","family_BOOKS","family_BREAD/BAKERY","family_CELEBRATION","family_CLEANING","family_DAIRY","family_DELI","family_EGGS","family_FROZEN FOODS","family_GROCERY I","family_GROCERY II","family_HARDWARE","family_HOME AND KITCHEN I","family_HOME AND KITCHEN II","family_HOME APPLIANCES","family_HOME CARE","family_LADIESWEAR","family_LAWN AND GARDEN","family_LINGERIE","family_LIQUOR,WINE,BEER","family_MAGAZINES","family_MEATS","family_PERSONAL CARE","family_PET SUPPLIES","family_PLAYERS AND ELECTRONICS","family_POULTRY","family_PREPARED FOODS","family_PRODUCE","family_SCHOOL AND OFFICE SUPPLIES","family_SEAFOOD","city_Ambato","city_Babahoyo","city_Cayambe","city_Cuenca","city_Daule","city_El Carmen","city_Esmeraldas","city_Guaranda","city_Guayaquil","city_Ibarra","city_Latacunga","city_Libertad","city_Loja","city_Machala","city_Manta","city_Playas","city_Puyo","city_Quevedo","city_Quito","city_Riobamba","city_Salinas","city_Santo Domingo","state_Azuay","state_Bolivar","state_Chimborazo","state_Cotopaxi","state_El Oro","state_Esmeraldas","state_Guayas","state_Imbabura","state_Loja","state_Los Rios","state_Manabi","state_Pastaza","state_Pichincha","state_Santa Elena","state_Santo Domingo de los Tsachilas","state_Tungurahua","holiday_type_Additional","holiday_type_Bridge","holiday_type_Event","holiday_type_Holiday","holiday_type_Transfer","store_type_A","store_type_B","store_type_C","store_type_D","store_type_E","locale_Local","locale_National","locale_Regional"],"feature_types":["float","float","float","float","float","float","float","float","float","float","float","float","float","float","float","float","float","float","float","float","float","float","float","float","float","float","float","float","float","float","float","float","float","float","float","float","float","float","float","float","float","float","float","float","float","float","float","float","float","float","float","float","float","float","float","float","float","float","float","float","float","float","float","float","float","float","float","float","float","float","float","float","float","float","float","float","float","float","float","float","float","float","float","float","float","float","float","float","float","float"],"gradient_booster":{"model":{"gbtree_model_param":{"num_parallel_tree":"1","num_trees":"100","size_leaf_vector":"0"},"tree_info":[0,0,0,0,0,0,0,0,0,0,0,0,0,0,0,0,0,0,0,0,0,0,0,0,0,0,0,0,0,0,0,0,0,0,0,0,0,0,0,0,0,0,0,0,0,0,0,0,0,0,0,0,0,0,0,0,0,0,0,0,0,0,0,0,0,0,0,0,0,0,0,0,0,0,0,0,0,0,0,0,0,0,0,0,0,0,0,0,0,0,0,0,0,0,0,0,0,0,0,0],"trees":[{"base_weights":[-5.017388E-1,-5.9962916E-1,2.630089E0,-6.6086066E-1,1.2981778E0,1.8936483E0,5.8584566E0,-6.975011E-1,4.386107E-1,8.0231166E-1,3.472254E0,1.8023995E0,4.7692723E0,6.892974E0,4.3855805E0,-7.2492856E-1,9.78025E-2,4.9061414E-2,2.1504939E0,2.514215E-1,1.1711931E0,2.0011616E0,4.587427E0,3.320989E0,1.6435277E0,4.3761525E0,6.63497E0,7.9600277E0,5.513622E0,5.1923466E0,3.023945E0,-7.4316585E-1,-2.1431164E-1,-7.264742E-2,8.453636E-1,-3.6210865E-1,6.827989E-1,3.1609318E0,-4.53366E-2,6.243145E-1,3.939605E-2,2.7365332E0,9.969249E-1,2.9664454E0,1.614891E0,6.5323787E0,3.8414547E0,1.0864512E0,4.432593E0,1.4548414E0,2.6239188E0,5.902085E0,3.836319E0,7.209718E0,4.009511E0,7.4236517E0,1.0214975E1,5.0049763E0,7.508063E0,6.969449E0,4.763044E0,2.8477166E0,4.168429E0],"categories":[],"categories_nodes":[],"categories_segments":[],"categories_sizes":[],"default_left":[1,1,1,1,1,1,1,1,1,1,1,1,1,1,1,1,1,1,1,1,1,1,1,1,1,1,1,1,1,1,1,0,0,0,0,0,0,0,0,0,0,0,0,0,0,0,0,0,0,0,0,0,0,0,0,0,0,0,0,0,0,0,0],"id":0,"left_children":[1,3,5,7,9,11,13,15,17,19,21,23,25,27,29,31,33,35,37,39,41,43,45,47,49,51,53,55,57,59,61,-1,-1,-1,-1,-1,-1,-1,-1,-1,-1,-1,-1,-1,-1,-1,-1,-1,-1,-1,-1,-1,-1,-1,-1,-1,-1,-1,-1,-1,-1,-1,-1],"loss_changes":[7.898711E4,2.9032508E4,1.8554809E4,9.750195E3,8.415712E3,1.660252E3,2.1791602E3,5.109086E3,5.205426E3,1.2921411E3,2.3695781E3,1.4821562E3,1.1398535E2,1.2071758E3,6.4451074E2,2.1082188E3,9.9509766E2,1.6574971E3,3.2106763E3,2.017437E2,1.0363257E3,2.2899316E2,1.1704297E3,1.4433096E3,1.0291475E3,1.1245264E2,1.9379883E1,5.010996E2,3.4183203E2,2.5366016E2,3.3711426E1,0E0,0E0,0E0,0E0,0E0,0E0,0E0,0E0,0E0,0E0,0E0,0E0,0E0,0E0,0E0,0E0,0E0,0E0,0E0,0E0,0E0,0E0,0E0,0E0,0E0,0E0,0E0,0E0,0E0,0E0,0E0,0E0],"parents":[2147483647,0,0,1,1,2,2,3,3,4,4,5,5,6,6,7,7,8,8,9,9,10,10,11,11,12,12,13,13,14,14,15,15,16,16,17,17,18,18,19,19,20,20,21,21,22,22,23,23,24,24,25,25,26,26,27,27,28,28,29,29,30,30],"right_children":[2,4,6,8,10,12,14,16,18,20,22,24,26,28,30,32,34,36,38,40,42,44,46,48,50,52,54,56,58,60,62,-1,-1,-1,-1,-1,-1,-1,-1,-1,-1,-1,-1,-1,-1,-1,-1,-1,-1,-1,-1,-1,-1,-1,-1,-1,-1,-1,-1,-1,-1,-1,-1],"split_conditions":[5E-1,5E-1,1.058363E0,5E-1,1.058363E0,5E-1,-1.7014262E-1,5E-1,1.058363E0,-1.4357439E-1,-1.4642539E-2,-1.5065371E0,1.2676721E0,1.314853E0,1.3789754E0,5E-1,1.058363E0,5E-1,1.0537517E0,1.0537517E0,-1.5065371E0,1.0537517E0,1.1866078E0,-1.6347821E0,1.2676721E0,-1.0017774E0,1.1188931E0,1.2676721E0,1.2676721E0,-1.1105297E0,1.2676721E0,-7.431658E-2,-2.1431165E-2,-7.264742E-3,8.4536366E-2,-3.6210865E-2,6.827989E-2,3.1609318E-1,-4.53366E-3,6.243145E-2,3.9396053E-3,2.7365333E-1,9.9692486E-2,2.9664454E-1,1.6148911E-1,6.532379E-1,3.8414547E-1,1.0864512E-1,4.432593E-1,1.4548413E-1,2.623919E-1,5.902085E-1,3.836319E-1,7.209718E-1,4.0095112E-1,7.423652E-1,1.0214976E0,5.0049764E-1,7.508063E-1,6.969449E-1,4.7630438E-1,2.8477165E-1,4.168429E-1],"split_indices":[18,9,0,36,0,41,3,13,0,1,1,0,4,0,0,14,0,85,3,3,0,3,0,0,4,5,5,4,4,5,4,0,0,0,0,0,0,0,0,0,0,0,0,0,0,0,0,0,0,0,0,0,0,0,0,0,0,0,0,0,0,0,0],"split_type":[0,0,0,0,0,0,0,0,0,0,0,0,0,0,0,0,0,0,0,0,0,0,0,0,0,0,0,0,0,0,0,0,0,0,0,0,0,0,0,0,0,0,0,0,0,0,0,0,0,0,0,0,0,0,0,0,0,0,0,0,0,0,0],"sum_hessian":[2.57637E5,2.49829E5,7.808E3,2.42021E5,7.808E3,6.359E3,1.449E3,2.34216E5,7.805E3,6.359E3,1.449E3,6.165E3,1.94E2,8.49E2,6E2,2.26408E5,7.808E3,6.359E3,1.446E3,2.551E3,3.808E3,6.26E2,8.23E2,5.82E2,5.583E3,1.63E2,3.1E1,4.76E2,3.73E2,3.75E2,2.25E2,2.186E5,7.808E3,6.359E3,1.449E3,3.857E3,2.502E3,9.9E2,4.56E2,9.24E2,1.627E3,3.8E2,3.428E3,1.77E2,4.49E2,2.26E2,5.97E2,1.94E2,3.88E2,4.684E3,8.99E2,4E1,1.23E2,2.4E1,7E0,3.88E2,8.8E1,3E2,7.3E1,7E1,3.05E2,1.98E2,2.7E1],"tree_param":{"num_deleted":"0","num_feature":"90","num_nodes":"63","size_leaf_vector":"0"}},{"base_weights":[-4.515253E-1,-5.396572E-1,2.3680975E0,-5.9477323E-1,1.1686078E0,1.7047639E0,5.2759833E0,-6.2775105E-1,3.947937E-1,7.2214967E-1,3.12606E0,1.6223152E0,4.3030925E0,6.207224E0,3.9501421E0,-6.5243614E-1,8.8032134E-2,4.4160336E-2,1.9356598E0,9.847813E-1,8.573763E-2,1.801776E0,4.1299434E0,2.9898367E0,1.4792479E0,3.9444754E0,6.006533E0,7.1677227E0,4.9656053E0,4.9005895E0,2.9865713E0,-6.8596673E-1,-4.1998956E-1,-6.538383E-2,7.608856E-1,1.5730032E0,-1.101075E-1,2.8451576E0,-4.0812865E-2,2.3346457E0,8.485973E-1,8.987356E-1,2.8458124E-3,2.8124037E0,1.4436382E0,5.4418163E0,3.2063737E0,1.9387759E0,5.0712357E0,1.3093883E0,2.3618183E0,5.3262715E0,3.455781E0,6.5175853E0,3.6586785E0,6.683195E0,9.204955E0,4.5061417E0,6.767402E0,4.3950186E0,6.219485E0,3.971261E0,2.6596327E0],"categories":[],"categories_nodes":[],"categories_segments":[],"categories_sizes":[],"default_left":[1,1,1,1,1,1,1,1,1,1,1,1,1,1,1,1,1,1,1,1,1,1,1,1,1,1,1,1,1,1,1,0,0,0,0,0,0,0,0,0,0,0,0,0,0,0,0,0,0,0,0,0,0,0,0,0,0,0,0,0,0,0,0],"id":1,"left_children":[1,3,5,7,9,11,13,15,17,19,21,23,25,27,29,31,33,35,37,39,41,43,45,47,49,51,53,55,57,59,61,-1,-1,-1,-1,-1,-1,-1,-1,-1,-1,-1,-1,-1,-1,-1,-1,-1,-1,-1,-1,-1,-1,-1,-1,-1,-1,-1,-1,-1,-1,-1,-1],"loss_changes":[6.402396E4,2.3522906E4,1.5053777E4,7.898336E3,6.8221875E3,1.3555137E3,1.7657617E3,4.1384766E3,4.2173325E3,1.0629382E3,1.9202275E3,1.2019404E3,9.542969E1,9.7809766E2,5.3577344E2,1.7643594E3,8.0614514E2,1.5001874E3,2.6012397E3,8.256216E2,1.2527709E2,2.2287878E2,9.8091406E2,1.2655835E3,8.340215E2,9.233887E1,1.4550293E1,4.0932422E2,2.79125E2,1.7337012E2,8.63396E1,0E0,0E0,0E0,0E0,0E0,0E0,0E0,0E0,0E0,0E0,0E0,0E0,0E0,0E0,0E0,0E0,0E0,0E0,0E0,0E0,0E0,0E0,0E0,0E0,0E0,0E0,0E0,0E0,0E0,0E0,0E0,0E0],"parents":[2147483647,0,0,1,1,2,2,3,3,4,4,5,5,6,6,7,7,8,8,9,9,10,10,11,11,12,12,13,13,14,14,15,15,16,16,17,17,18,18,19,19,20,20,21,21,22,22,23,23,24,24,25,25,26,26,27,27,28,28,29,29,30,30],"right_children":[2,4,6,8,10,12,14,16,18,20,22,24,26,28,30,32,34,36,38,40,42,44,46,48,50,52,54,56,58,60,62,-1,-1,-1,-1,-1,-1,-1,-1,-1,-1,-1,-1,-1,-1,-1,-1,-1,-1,-1,-1,-1,-1,-1,-1,-1,-1,-1,-1,-1,-1,-1,-1],"split_conditions":[5E-1,5E-1,1.058363E0,5E-1,1.058363E0,5E-1,-1.7014262E-1,5E-1,1.058363E0,1.0537517E0,-1.4642539E-2,-1.5065371E0,1.2676721E0,1.314853E0,1.314853E0,-1.4357439E-1,1.058363E0,-1.5065371E0,1.0537517E0,-1.5065371E0,-1.5065371E0,1.1866078E0,8.419527E-1,-1.5706596E0,1.2676721E0,-1.0017774E0,1.1188931E0,1.2676721E0,1.2676721E0,9.5927453E-1,-1.0017774E0,-6.8596676E-2,-4.1998956E-2,-6.538383E-3,7.608856E-2,1.5730032E-1,-1.101075E-2,2.8451577E-1,-4.0812865E-3,2.3346458E-1,8.485973E-2,8.987356E-2,2.8458124E-4,2.8124037E-1,1.4436382E-1,5.4418164E-1,3.2063738E-1,1.938776E-1,5.071236E-1,1.3093883E-1,2.3618184E-1,5.3262717E-1,3.455781E-1,6.5175855E-1,3.6586785E-1,6.683195E-1,9.204955E-1,4.5061418E-1,6.767402E-1,4.3950185E-1,6.219485E-1,3.971261E-1,2.659633E-1],"split_indices":[18,9,0,36,0,41,3,13,0,3,1,0,4,0,0,1,0,0,3,0,0,0,2,0,4,5,5,4,4,4,5,0,0,0,0,0,0,0,0,0,0,0,0,0,0,0,0,0,0,0,0,0,0,0,0,0,0,0,0,0,0,0,0],"split_type":[0,0,0,0,0,0,0,0,0,0,0,0,0,0,0,0,0,0,0,0,0,0,0,0,0,0,0,0,0,0,0,0,0,0,0,0,0,0,0,0,0,0,0,0,0,0,0,0,0,0,0,0,0,0,0,0,0,0,0,0,0,0,0],"sum_hessian":[2.57637E5,2.49829E5,7.808E3,2.42021E5,7.808E3,6.359E3,1.449E3,2.34216E5,7.805E3,6.359E3,1.449E3,6.165E3,1.94E2,8.49E2,6E2,2.26408E5,7.808E3,6.359E3,1.446E3,4.501E3,1.858E3,6.26E2,8.23E2,5.82E2,5.583E3,1.63E2,3.1E1,4.76E2,3.73E2,3E2,3E2,1.97864E5,2.8544E4,6.359E3,1.449E3,5.82E2,5.777E3,9.9E2,4.56E2,4.11E2,4.09E3,1.71E2,1.687E3,1.62E2,4.64E2,3.38E2,4.85E2,3.88E2,1.94E2,4.684E3,8.99E2,4E1,1.23E2,2.4E1,7E0,3.88E2,8.8E1,3E2,7.3E1,2.2E2,8E1,7.2E1,2.28E2],"tree_param":{"num_deleted":"0","num_feature":"90","num_nodes":"63","size_leaf_vector":"0"}},{"base_weights":[-4.0633592E-1,-4.8568308E-1,2.132236E0,-5.352943E-1,1.0519646E0,1.5347536E0,4.751447E0,-5.649761E-1,3.5536897E-1,6.499989E-1,2.814344E0,1.4602568E0,3.8825057E0,5.589697E0,3.5579975E0,-5.87193E-1,7.923783E-2,3.97673E-2,1.7422876E0,2.3629601E-1,9.975559E-1,1.6900036E0,3.780637E0,2.6920552E0,1.331389E0,3.555383E0,5.4376807E0,6.4542813E0,4.4720592E0,4.2274175E0,2.4285288E0,-6.03255E-1,-1.3748688E-1,-5.8846466E-2,6.848495E-1,-5.5463754E-2,2.204704E0,3.312453E0,6.8200016E-1,5.118062E-1,5.1007092E-2,2.3050945E0,8.527468E-1,2.7578254E0,1.3536655E0,4.6514897E0,2.6246476E0,7.8547984E-1,3.6408732E0,1.1784774E0,2.125899E0,4.8066354E0,3.11299E0,5.6826105E0,2.3025212E0,5.3367887E0,7.269782E0,4.0570245E0,6.0998073E0,5.836807E0,3.8401818E0,2.2700891E0,3.467849E0],"categories":[],"categories_nodes":[],"categories_segments":[],"categories_sizes":[],"default_left":[1,1,1,1,1,1,1,1,1,1,1,1,1,1,1,1,1,1,1,1,1,1,1,1,1,1,1,1,1,1,1,0,0,0,0,0,0,0,0,0,0,0,0,0,0,0,0,0,0,0,0,0,0,0,0,0,0,0,0,0,0,0,0],"id":2,"left_children":[1,3,5,7,9,11,13,15,17,19,21,23,25,27,29,31,33,35,37,39,41,43,45,47,49,51,53,55,57,59,61,-1,-1,-1,-1,-1,-1,-1,-1,-1,-1,-1,-1,-1,-1,-1,-1,-1,-1,-1,-1,-1,-1,-1,-1,-1,-1,-1,-1,-1,-1,-1,-1],"loss_changes":[5.1896664E4,1.9058742E4,1.221327E4,6.3984062E3,5.5301924E3,1.1066934E3,1.4307031E3,3.3522656E3,3.4167253E3,9.14239E2,1.5689521E3,9.7520215E2,7.987012E1,7.924844E2,4.4414307E2,1.6353125E3,6.5307153E2,1.3113584E3,2.406745E3,1.4827116E2,6.524055E2,2.3761511E2,7.720078E2,1.0517832E3,6.758926E2,7.581836E1,1.1488281E1,3.959004E2,2.279165E2,2.1191455E2,2.9343018E1,0E0,0E0,0E0,0E0,0E0,0E0,0E0,0E0,0E0,0E0,0E0,0E0,0E0,0E0,0E0,0E0,0E0,0E0,0E0,0E0,0E0,0E0,0E0,0E0,0E0,0E0,0E0,0E0,0E0,0E0,0E0,0E0],"parents":[2147483647,0,0,1,1,2,2,3,3,4,4,5,5,6,6,7,7,8,8,9,9,10,10,11,11,12,12,13,13,14,14,15,15,16,16,17,17,18,18,19,19,20,20,21,21,22,22,23,23,24,24,25,25,26,26,27,27,28,28,29,29,30,30],"right_children":[2,4,6,8,10,12,14,16,18,20,22,24,26,28,30,32,34,36,38,40,42,44,46,48,50,52,54,56,58,60,62,-1,-1,-1,-1,-1,-1,-1,-1,-1,-1,-1,-1,-1,-1,-1,-1,-1,-1,-1,-1,-1,-1,-1,-1,-1,-1,-1,-1,-1,-1,-1,-1],"split_conditions":[5E-1,5E-1,1.058363E0,5E-1,1.058363E0,5E-1,-1.7014262E-1,5E-1,1.058363E0,-7.910846E-2,4.982339E-2,-1.5065371E0,1.2676721E0,1.314853E0,1.3789754E0,5E-1,1.058363E0,8.462627E0,8.419527E-1,1.0537517E0,-1.5065371E0,-1.1105297E0,1.314853E0,-1.6347821E0,1.2676721E0,-1.0017774E0,1.4995263E0,5E-1,1.2676721E0,-1.1105297E0,1.2676721E0,-6.03255E-2,-1.3748688E-2,-5.884647E-3,6.8484955E-2,-5.5463756E-3,2.2047041E-1,3.312453E-1,6.8200015E-2,5.118062E-2,5.1007094E-3,2.3050945E-1,8.527468E-2,2.7578256E-1,1.3536654E-1,4.65149E-1,2.6246476E-1,7.8547984E-2,3.640873E-1,1.1784774E-1,2.125899E-1,4.8066354E-1,3.11299E-1,5.682611E-1,2.3025213E-1,5.336789E-1,7.2697824E-1,4.0570244E-1,6.0998076E-1,5.836807E-1,3.8401818E-1,2.2700892E-1,3.4678492E-1],"split_indices":[18,9,0,36,0,41,3,13,0,1,1,0,4,0,0,14,0,1,2,3,0,5,0,0,4,5,5,88,4,5,4,0,0,0,0,0,0,0,0,0,0,0,0,0,0,0,0,0,0,0,0,0,0,0,0,0,0,0,0,0,0,0,0],"split_type":[0,0,0,0,0,0,0,0,0,0,0,0,0,0,0,0,0,0,0,0,0,0,0,0,0,0,0,0,0,0,0,0,0,0,0,0,0,0,0,0,0,0,0,0,0,0,0,0,0,0,0,0,0,0,0,0,0,0,0,0,0,0,0],"sum_hessian":[2.57637E5,2.49829E5,7.808E3,2.42021E5,7.808E3,6.359E3,1.449E3,2.34216E5,7.805E3,6.359E3,1.449E3,6.165E3,1.94E2,8.49E2,6E2,2.26408E5,7.808E3,6.359E3,1.446E3,2.904E3,3.455E3,6.71E2,7.78E2,5.82E2,5.583E3,1.63E2,3.1E1,4.76E2,3.73E2,3.75E2,2.25E2,2.186E5,7.808E3,6.359E3,1.449E3,6.092E3,2.67E2,5.82E2,8.64E2,1.167E3,1.737E3,3.43E2,3.112E3,1.59E2,5.12E2,4.42E2,3.36E2,1.94E2,3.88E2,4.684E3,8.99E2,4E1,1.23E2,2.8E1,3E0,2.04E2,2.72E2,3E2,7.3E1,7E1,3.05E2,1.98E2,2.7E1],"tree_param":{"num_deleted":"0","num_feature":"90","num_nodes":"63","size_leaf_vector":"0"}},{"base_weights":[-3.6567014E-1,-4.371063E-1,1.919804E0,-4.8176238E-1,9.4696164E-1,1.3816499E0,4.2789354E0,-5.084785E-1,3.1991076E-1,5.5457664E-1,2.4180682E0,1.3143566E0,3.5024111E0,5.1149654E0,3.308796E0,-5.2847403E-1,7.132206E-2,-9.348997E-2,1.1916951E0,1.2149999E-1,8.404631E-1,1.3491547E0,3.1763601E0,1.6054069E0,8.497394E-1,3.2046735E0,4.918866E0,4.222092E0,6.0131063E0,4.027569E0,2.4047098E0,-5.6754524E-1,-3.6562687E-1,-5.2962746E-2,6.1641175E-1,1.2941091E-1,-6.2066054E-1,2.5909839E0,3.092155E-1,7.2915953E-1,6.664599E-2,2.0296142E0,7.043182E-1,2.7392628E0,1.168302E0,1.6967075E0,3.6211648E0,3.0789592E0,1.4512744E0,7.761964E-1,1.3783951E0,4.3376956E0,2.8042014E0,4.325007E0,7.2607045E0,3.93445E0,6.359092E0,5.596808E0,8.21847E0,3.6526697E0,5.49807E0,2.210586E0,3.7300634E0],"categories":[],"categories_nodes":[],"categories_segments":[],"categories_sizes":[],"default_left":[1,1,1,1,1,1,1,1,1,1,1,1,1,1,1,1,1,1,1,1,1,1,1,1,1,1,1,1,1,1,1,0,0,0,0,0,0,0,0,0,0,0,0,0,0,0,0,0,0,0,0,0,0,0,0,0,0,0,0,0,0,0,0],"id":3,"left_children":[1,3,5,7,9,11,13,15,17,19,21,23,25,27,29,31,33,35,37,39,41,43,45,47,49,51,53,55,57,59,61,-1,-1,-1,-1,-1,-1,-1,-1,-1,-1,-1,-1,-1,-1,-1,-1,-1,-1,-1,-1,-1,-1,-1,-1,-1,-1,-1,-1,-1,-1,-1,-1],"loss_changes":[4.2064254E4,1.5441703E4,9.908209E3,5.183703E3,4.506327E3,9.030498E2,1.159123E3,2.7154062E3,2.813365E3,7.633152E2,1.3282568E3,8.324453E2,6.6474365E1,5.97709E2,4.2830176E2,1.4403516E3,5.290641E2,6.223962E2,3.0998914E3,8.171617E1,5.998552E2,1.6876062E2,6.2634375E2,8.563252E2,9.134509E1,6.2250244E1,1.3100525E1,2.1655371E2,3.074668E2,1.861001E2,6.919641E1,0E0,0E0,0E0,0E0,0E0,0E0,0E0,0E0,0E0,0E0,0E0,0E0,0E0,0E0,0E0,0E0,0E0,0E0,0E0,0E0,0E0,0E0,0E0,0E0,0E0,0E0,0E0,0E0,0E0,0E0,0E0,0E0],"parents":[2147483647,0,0,1,1,2,2,3,3,4,4,5,5,6,6,7,7,8,8,9,9,10,10,11,11,12,12,13,13,14,14,15,15,16,16,17,17,18,18,19,19,20,20,21,21,22,22,23,23,24,24,25,25,26,26,27,27,28,28,29,29,30,30],"right_children":[2,4,6,8,10,12,14,16,18,20,22,24,26,28,30,32,34,36,38,40,42,44,46,48,50,52,54,56,58,60,62,-1,-1,-1,-1,-1,-1,-1,-1,-1,-1,-1,-1,-1,-1,-1,-1,-1,-1,-1,-1,-1,-1,-1,-1,-1,-1,-1,-1,-1,-1,-1,-1],"split_conditions":[5E-1,5E-1,1.058363E0,5E-1,9.621792E-1,5E-1,1.314853E0,5E-1,5E-1,-1.4357439E-1,-7.910846E-2,-1.7014262E-1,1.2676721E0,5E-1,-1.7014262E-1,-2.0804033E-1,1.058363E0,1.0537517E0,6.2980974E-1,-1.5065371E0,-1.5065371E0,-2.1876226E-1,5E-1,-1.5065371E0,1.2676721E0,-1.0017774E0,8.301462E0,1.2676721E0,5.4004955E0,1.2676721E0,1.2676721E0,-5.6754526E-2,-3.656269E-2,-5.2962746E-3,6.1641175E-2,1.2941091E-2,-6.2066056E-2,2.5909838E-1,3.0921549E-2,7.291596E-2,6.664599E-3,2.0296143E-1,7.043182E-2,2.739263E-1,1.1683021E-1,1.6967075E-1,3.621165E-1,3.0789593E-1,1.4512745E-1,7.761964E-2,1.3783951E-1,4.3376955E-1,2.8042015E-1,4.325007E-1,7.2607046E-1,3.93445E-1,6.3590926E-1,5.596808E-1,8.2184696E-1,3.6526698E-1,5.49807E-1,2.210586E-1,3.7300634E-1],"split_indices":[18,9,0,36,0,41,0,13,57,1,1,3,4,88,3,1,0,3,2,0,0,2,57,0,4,5,1,4,1,4,4,0,0,0,0,0,0,0,0,0,0,0,0,0,0,0,0,0,0,0,0,0,0,0,0,0,0,0,0,0,0,0,0],"split_type":[0,0,0,0,0,0,0,0,0,0,0,0,0,0,0,0,0,0,0,0,0,0,0,0,0,0,0,0,0,0,0,0,0,0,0,0,0,0,0,0,0,0,0,0,0,0,0,0,0,0,0,0,0,0,0,0,0,0,0,0,0,0,0],"sum_hessian":[2.57637E5,2.49829E5,7.808E3,2.42021E5,7.808E3,6.359E3,1.449E3,2.34216E5,7.805E3,6.165E3,1.643E3,6.165E3,1.94E2,7.76E2,6.73E2,2.26408E5,7.808E3,5.295E3,2.51E3,2.452E3,3.713E3,6.83E2,9.6E2,3.789E3,2.376E3,1.63E2,3.1E1,3.92E2,3.84E2,3.73E2,3E2,1.82596E5,4.3812E4,6.359E3,1.449E3,3.722E3,1.573E3,9.7E2,1.54E3,2.02E2,2.25E3,3.8E2,3.333E3,7.7E1,6.06E2,2.23E2,7.37E2,3.57E2,3.432E3,2.088E3,2.88E2,4E1,1.23E2,2.7E1,4E0,3.48E2,4.4E1,3.26E2,5.8E1,3E2,7.3E1,2.64E2,3.6E1],"tree_param":{"num_deleted":"0","num_feature":"90","num_nodes":"63","size_leaf_vector":"0"}},{"base_weights":[-3.290723E-1,-3.9338976E-1,1.728651E0,-4.3358532E-1,8.524288E-1,1.2438844E0,3.8537455E0,-4.5763084E-1,2.8795055E-1,4.991762E-1,2.1768224E0,1.1830293E0,3.161774E0,4.557868E0,2.8514862E0,-4.7562703E-1,6.419706E-2,1.668922E-1,2.9872346E0,7.6798385E-1,1.0785811E-1,2.7306817E0,9.538818E-1,1.4449857E0,7.648561E-1,2.888561E0,4.463185E0,4.9128275E0,2.6582072E0,3.3857644E0,1.9499813E0,-4.8978636E-1,-7.919727E-2,-4.766732E-2,5.5481315E-1,4.9547064E-1,-5.7452226E-1,1.664202E0,3.8609767E0,1.1117909E0,2.9561532E-1,2.5922415E-1,-2.3109894E-1,1.4692675E0,3.2009687E0,1.940963E0,6.865278E-1,2.7719233E0,1.3061892E0,9.2500687E-1,5.3160125E-1,3.7333362E0,2.4515665E0,2.9583225E0,5.110574E0,4.521478E0,6.5913515E0,2.3116827E0,3.8055384E0,4.830372E0,3.039513E0,1.8242732E0,2.7737646E0],"categories":[],"categories_nodes":[],"categories_segments":[],"categories_sizes":[],"default_left":[1,1,1,1,1,1,1,1,1,1,1,1,1,1,1,1,1,1,1,1,1,1,1,1,1,1,1,1,1,1,1,0,0,0,0,0,0,0,0,0,0,0,0,0,0,0,0,0,0,0,0,0,0,0,0,0,0,0,0,0,0,0,0],"id":4,"left_children":[1,3,5,7,9,11,13,15,17,19,21,23,25,27,29,31,33,35,37,39,41,43,45,47,49,51,53,55,57,59,61,-1,-1,-1,-1,-1,-1,-1,-1,-1,-1,-1,-1,-1,-1,-1,-1,-1,-1,-1,-1,-1,-1,-1,-1,-1,-1,-1,-1,-1,-1,-1,-1],"loss_changes":[3.409844E4,1.25109375E4,8.03984E3,4.1991484E3,3.6523198E3,7.3855664E2,1.01028906E3,2.199543E3,2.5502751E3,6.485144E2,1.110937E3,6.743379E2,5.6442505E1,5.600957E2,2.8287256E2,1.2708398E3,4.2860358E2,1.8205596E3,3.8083105E2,5.932566E2,1.2894205E2,6.662363E2,1.3431213E2,6.944004E2,8.8303345E1,5.1389893E1,1.6056702E1,4.3987305E2,4.5273438E1,1.7339209E2,1.8343689E1,0E0,0E0,0E0,0E0,0E0,0E0,0E0,0E0,0E0,0E0,0E0,0E0,0E0,0E0,0E0,0E0,0E0,0E0,0E0,0E0,0E0,0E0,0E0,0E0,0E0,0E0,0E0,0E0,0E0,0E0,0E0,0E0],"parents":[2147483647,0,0,1,1,2,2,3,3,4,4,5,5,6,6,7,7,8,8,9,9,10,10,11,11,12,12,13,13,14,14,15,15,16,16,17,17,18,18,19,19,20,20,21,21,22,22,23,23,24,24,25,25,26,26,27,27,28,28,29,29,30,30],"right_children":[2,4,6,8,10,12,14,16,18,20,22,24,26,28,30,32,34,36,38,40,42,44,46,48,50,52,54,56,58,60,62,-1,-1,-1,-1,-1,-1,-1,-1,-1,-1,-1,-1,-1,-1,-1,-1,-1,-1,-1,-1,-1,-1,-1,-1,-1,-1,-1,-1,-1,-1,-1,-1],"split_conditions":[5E-1,5E-1,1.058363E0,5E-1,9.621792E-1,5E-1,-1.7014262E-1,5E-1,1.0428837E1,5E-1,1.0537517E0,-1.7014262E-1,1.2676721E0,1.4430978E0,1.3789754E0,5E-1,1.058363E0,1.0537517E0,5E-1,-6.6192783E-3,7.5048935E-1,5E-1,-1.1105297E0,-1.5065371E0,5E-1,-6.7552036E-1,7.382599E-1,1.2676721E0,1.2676721E0,-1.1105297E0,1.2676721E0,-4.8978638E-2,-7.919728E-3,-4.766732E-3,5.5481315E-2,4.9547065E-2,-5.7452228E-2,1.664202E-1,3.8609767E-1,1.1117909E-1,2.9561533E-2,2.5922416E-2,-2.3109894E-2,1.4692675E-1,3.2009688E-1,1.9409631E-1,6.865278E-2,2.7719232E-1,1.3061891E-1,9.250069E-2,5.3160127E-2,3.7333363E-1,2.4515665E-1,2.9583225E-1,5.110574E-1,4.521478E-1,6.5913516E-1,2.3116827E-1,3.8055384E-1,4.830372E-1,3.0395132E-1,1.8242733E-1,2.7737647E-1],"split_indices":[18,9,0,36,0,41,3,13,1,84,3,3,4,0,0,14,0,3,57,2,3,57,5,0,84,5,5,4,4,5,4,0,0,0,0,0,0,0,0,0,0,0,0,0,0,0,0,0,0,0,0,0,0,0,0,0,0,0,0,0,0,0,0],"split_type":[0,0,0,0,0,0,0,0,0,0,0,0,0,0,0,0,0,0,0,0,0,0,0,0,0,0,0,0,0,0,0,0,0,0,0,0,0,0,0,0,0,0,0,0,0,0,0,0,0,0,0,0,0,0,0,0,0,0,0,0,0,0,0],"sum_hessian":[2.57637E5,2.49829E5,7.808E3,2.42021E5,7.808E3,6.359E3,1.449E3,2.34216E5,7.805E3,6.165E3,1.643E3,6.165E3,1.94E2,8.49E2,6E2,2.26408E5,7.808E3,7.471E3,3.34E2,3.654E3,2.511E3,1.13E3,5.13E2,3.789E3,2.376E3,1.63E2,3.1E1,7.14E2,1.35E2,3.75E2,2.25E2,2.186E5,7.808E3,6.359E3,1.449E3,5.177E3,2.294E3,1.34E2,2E2,2.114E3,1.54E3,1.736E3,7.75E2,3.08E2,8.22E2,1.08E2,4.05E2,3.57E2,3.432E3,1.407E3,9.69E2,5.3E1,1.1E2,1.1E1,2E1,5.82E2,1.32E2,1.06E2,2.9E1,7E1,3.05E2,1.98E2,2.7E1],"tree_param":{"num_deleted":"0","num_feature":"90","num_nodes":"63","size_leaf_vector":"0"}},{"base_weights":[-2.9614037E-1,-3.5404512E-1,1.5564196E0,-3.9022455E-1,7.6729774E-1,1.1198071E0,3.4704192E0,-4.1186777E-1,2.5922525E-1,4.4928187E-1,1.9595841E0,1.0486599E0,2.6161842E0,4.175875E0,2.6520073E0,-4.2806455E-1,5.7783853E-2,-2.1461986E-3,1.4078523E0,1.12553276E-1,7.282579E-1,1.1777551E0,2.6744323E0,1.2793461E0,7.015808E-1,2.268779E0,4.305944E0,3.3967142E0,4.9603796E0,2.3558066E0,4.1825056E0,-4.6250704E-1,-2.845108E-1,-4.2901333E-2,4.9937007E-1,-3.25844E-1,4.967864E-1,2.1709983E0,-2.5010324E-1,7.173029E-1,5.5725235E-2,4.9740568E-1,1.3905586E0,1.6776294E0,7.7767795E-1,4.640082E0,2.3851922E0,1.7196897E0,1.0364544E0,9.408954E-1,-7.97316E-2,4.5750804E0,2.1595902E0,5.654324E0,3.308438E0,3.1520014E0,5.2191143E0,5.4542084E0,3.5177896E0,1.8426449E0,2.9095085E0,7.6151867E0,3.7935226E0],"categories":[],"categories_nodes":[],"categories_segments":[],"categories_sizes":[],"default_left":[1,1,1,1,1,1,1,1,1,1,1,1,1,1,1,1,1,1,1,1,1,1,1,1,1,1,1,1,1,1,1,0,0,0,0,0,0,0,0,0,0,0,0,0,0,0,0,0,0,0,0,0,0,0,0,0,0,0,0,0,0,0,0],"id":5,"left_children":[1,3,5,7,9,11,13,15,17,19,21,23,25,27,29,31,33,35,37,39,41,43,45,47,49,51,53,55,57,59,61,-1,-1,-1,-1,-1,-1,-1,-1,-1,-1,-1,-1,-1,-1,-1,-1,-1,-1,-1,-1,-1,-1,-1,-1,-1,-1,-1,-1,-1,-1,-1,-1],"loss_changes":[2.7637904E4,1.0135779E4,6.52191E3,3.4020156E3,2.9600273E3,6.7435986E2,8.260879E2,1.7816836E3,2.3435073E3,5.791471E2,9.156636E2,4.853457E2,1.5929565E2,4.5809668E2,2.9569434E2,1.1193086E3,3.4721887E2,1.0273234E3,1.8313774E3,9.601506E1,5.148655E2,1.5608606E2,4.7674414E2,3.8828516E2,4.5387415E2,5.080896E1,4.585382E1,1.5881299E2,2.5508398E2,1.5574536E2,1.15319214E2,0E0,0E0,0E0,0E0,0E0,0E0,0E0,0E0,0E0,0E0,0E0,0E0,0E0,0E0,0E0,0E0,0E0,0E0,0E0,0E0,0E0,0E0,0E0,0E0,0E0,0E0,0E0,0E0,0E0,0E0,0E0,0E0],"parents":[2147483647,0,0,1,1,2,2,3,3,4,4,5,5,6,6,7,7,8,8,9,9,10,10,11,11,12,12,13,13,14,14,15,15,16,16,17,17,18,18,19,19,20,20,21,21,22,22,23,23,24,24,25,25,26,26,27,27,28,28,29,29,30,30],"right_children":[2,4,6,8,10,12,14,16,18,20,22,24,26,28,30,32,34,36,38,40,42,44,46,48,50,52,54,56,58,60,62,-1,-1,-1,-1,-1,-1,-1,-1,-1,-1,-1,-1,-1,-1,-1,-1,-1,-1,-1,-1,-1,-1,-1,-1,-1,-1,-1,-1,-1,-1,-1,-1],"split_conditions":[5E-1,5E-1,1.058363E0,5E-1,9.621792E-1,5.8517566E0,1.314853E0,5E-1,1.058363E0,-7.910846E-2,4.982339E-2,5E-1,7.8502007E0,5E-1,4.433506E0,-2.0804033E-1,1.058363E0,5E-1,1.0537517E0,-1.5065371E0,5E-1,-4.5801568E-1,-2.1876226E-1,5E-1,5E-1,-1.3537067E0,-8.653121E-1,1.2676721E0,7.5048935E-1,5E-1,-1.3280344E0,-4.6250705E-2,-2.845108E-2,-4.2901332E-3,4.9937006E-2,-3.25844E-2,4.967864E-2,2.1709983E-1,-2.5010323E-2,7.173029E-2,5.5725235E-3,4.9740568E-2,1.3905586E-1,1.6776294E-1,7.77678E-2,4.6400818E-1,2.3851922E-1,1.7196898E-1,1.03645444E-1,9.408954E-2,-7.97316E-3,4.5750806E-1,2.1595903E-1,5.654324E-1,3.308438E-1,3.1520015E-1,5.2191144E-1,5.454208E-1,3.5177895E-1,1.842645E-1,2.9095086E-1,7.6151866E-1,3.7935227E-1],"split_indices":[18,9,0,36,0,1,0,13,0,1,1,84,1,88,1,1,0,85,3,0,73,5,2,80,67,4,0,4,3,88,5,0,0,0,0,0,0,0,0,0,0,0,0,0,0,0,0,0,0,0,0,0,0,0,0,0,0,0,0,0,0,0,0],"split_type":[0,0,0,0,0,0,0,0,0,0,0,0,0,0,0,0,0,0,0,0,0,0,0,0,0,0,0,0,0,0,0,0,0,0,0,0,0,0,0,0,0,0,0,0,0,0,0,0,0,0,0,0,0,0,0,0,0,0,0,0,0,0,0],"sum_hessian":[2.57637E5,2.49829E5,7.808E3,2.42021E5,7.808E3,6.359E3,1.449E3,2.34216E5,7.805E3,6.165E3,1.643E3,6.072E3,2.87E2,7.76E2,6.73E2,2.26408E5,7.808E3,6.359E3,1.446E3,2.794E3,3.371E3,7.86E2,8.57E2,3.646E3,2.426E3,2.4E2,4.7E1,3.92E2,3.84E2,5.66E2,1.07E2,1.82596E5,4.3812E4,6.359E3,1.449E3,3.857E3,2.502E3,9.9E2,4.56E2,2.39E2,2.555E3,2.501E3,8.7E2,3.48E2,4.38E2,1.08E2,7.49E2,1.294E3,2.352E3,1.857E3,5.69E2,9E0,2.31E2,1.8E1,2.9E1,3.48E2,4.4E1,2.84E2,1E2,2.96E2,2.7E2,9E0,9.8E1],"tree_param":{"num_deleted":"0","num_feature":"90","num_nodes":"63","size_leaf_vector":"0"}},{"base_weights":[-2.665004E-1,-3.1863505E-1,1.4014541E0,-3.5120136E-1,6.907235E-1,1.0081301E0,3.1256878E0,-3.5560915E-1,2.4018533E0,4.0439686E-1,1.7642024E0,9.544961E-1,2.6988952E0,3.717821E0,2.2830274E0,-4.0499648E-1,-1.7527685E-1,1.3586094E0,3.2566128E0,2.6505616E-1,1.0023177E0,2.2251773E0,7.4644566E-1,1.8590326E0,8.598866E-1,2.4635773E0,3.8205595E0,4.8617554E0,3.2650137E0,2.7272198E0,1.5339153E0,-4.1049615E-1,-4.094281E-2,-2.1921222E-1,5.043078E-1,1.0309293E0,3.3909616E0,7.2134833E0,2.2657053E0,1.0103924E0,1.8808098E-1,7.434413E-1,1.7234007E0,1.1272539E0,2.634695E0,1.5817745E0,5.2034396E-1,9.663849E-1,3.630217E0,7.333154E-1,1.5178043E0,3.3895965E0,2.1375258E0,4.26862E0,1.9428003E0,6.587333E0,4.220099E0,2.892459E0,4.8001795E0,2.304601E0,3.8550973E0,2.1315517E0,1.3859137E0],"categories":[],"categories_nodes":[],"categories_segments":[],"categories_sizes":[],"default_left":[1,1,1,1,1,1,1,1,1,1,1,1,1,1,1,1,1,1,1,1,1,1,1,1,1,1,1,1,1,1,1,0,0,0,0,0,0,0,0,0,0,0,0,0,0,0,0,0,0,0,0,0,0,0,0,0,0,0,0,0,0,0,0],"id":6,"left_children":[1,3,5,7,9,11,13,15,17,19,21,23,25,27,29,31,33,35,37,39,41,43,45,47,49,51,53,55,57,59,61,-1,-1,-1,-1,-1,-1,-1,-1,-1,-1,-1,-1,-1,-1,-1,-1,-1,-1,-1,-1,-1,-1,-1,-1,-1,-1,-1,-1,-1,-1,-1,-1],"loss_changes":[2.2404174E4,8.212422E3,5.2927773E3,2.9377656E3,2.3995044E3,5.7416406E2,7.150137E2,2.1519688E3,3.4067212E2,5.134528E2,7.696387E2,5.260737E2,4.205774E1,4.244121E2,1.9579932E2,3.7976953E2,1.5512533E3,1.1371341E2,8.148855E2,2.8678665E2,2.161908E2,5.0554932E2,9.625571E1,9.1824036E2,4.6388574E2,4.227118E1,1.8630096E1,2.3682812E2,3.3613867E2,1.7034058E2,1.7035767E1,0E0,0E0,0E0,0E0,0E0,0E0,0E0,0E0,0E0,0E0,0E0,0E0,0E0,0E0,0E0,0E0,0E0,0E0,0E0,0E0,0E0,0E0,0E0,0E0,0E0,0E0,0E0,0E0,0E0,0E0,0E0,0E0],"parents":[2147483647,0,0,1,1,2,2,3,3,4,4,5,5,6,6,7,7,8,8,9,9,10,10,11,11,12,12,13,13,14,14,15,15,16,16,17,17,18,18,19,19,20,20,21,21,22,22,23,23,24,24,25,25,26,26,27,27,28,28,29,29,30,30],"right_children":[2,4,6,8,10,12,14,16,18,20,22,24,26,28,30,32,34,36,38,40,42,44,46,48,50,52,54,56,58,60,62,-1,-1,-1,-1,-1,-1,-1,-1,-1,-1,-1,-1,-1,-1,-1,-1,-1,-1,-1,-1,-1,-1,-1,-1,-1,-1,-1,-1,-1,-1,-1,-1],"split_conditions":[5E-1,5E-1,1.058363E0,9.461848E0,9.621792E-1,5E-1,-1.7014262E-1,-2.0804033E-1,5E-1,1.4036078E0,1.0537517E0,-1.5065371E0,1.2676721E0,1.1866078E0,1.3789754E0,5E-1,5E-1,5E-1,-6.6192783E-3,-1.5065371E0,5E-1,5E-1,-1.1105297E0,-1.5706596E0,1.2676721E0,-1.0017774E0,1.1188931E0,-8.152276E-1,1.2676721E0,9.5927453E-1,-1.1105297E0,-4.1049615E-2,-4.0942812E-3,-2.1921223E-2,5.0430782E-2,1.0309293E-1,3.3909616E-1,7.2134835E-1,2.2657053E-1,1.01039246E-1,1.8808099E-2,7.434413E-2,1.7234008E-1,1.1272539E-1,2.6346952E-1,1.5817745E-1,5.2034397E-2,9.663849E-2,3.630217E-1,7.333154E-2,1.5178043E-1,3.3895966E-1,2.1375258E-1,4.26862E-1,1.9428003E-1,6.587333E-1,4.2200992E-1,2.892459E-1,4.8001796E-1,2.3046009E-1,3.8550973E-1,2.1315518E-1,1.3859138E-1],"split_indices":[18,9,0,1,0,41,3,1,57,1,3,0,4,0,0,13,36,47,2,0,73,57,5,0,4,5,5,3,4,4,5,0,0,0,0,0,0,0,0,0,0,0,0,0,0,0,0,0,0,0,0,0,0,0,0,0,0,0,0,0,0,0,0],"split_type":[0,0,0,0,0,0,0,0,0,0,0,0,0,0,0,0,0,0,0,0,0,0,0,0,0,0,0,0,0,0,0,0,0,0,0,0,0,0,0,0,0,0,0,0,0,0,0,0,0,0,0,0,0,0,0,0,0,0,0,0,0,0,0],"sum_hessian":[2.57637E5,2.49829E5,7.808E3,2.42021E5,7.808E3,6.359E3,1.449E3,2.41635E5,3.86E2,6.165E3,1.643E3,6.165E3,1.94E2,8.49E2,6E2,1.89685E5,5.195E4,1.75E2,2.11E2,5.001E3,1.164E3,1.13E3,5.13E2,5.82E2,5.583E3,1.63E2,3.1E1,2.38E2,6.11E2,3.75E2,2.25E2,1.86862E5,2.823E3,4.8796E4,3.154E3,1.52E2,2.3E1,4.1E1,1.7E2,4.67E2,4.534E3,8.58E2,3.06E2,3.08E2,8.22E2,1.08E2,4.05E2,3.88E2,1.94E2,4.684E3,8.99E2,4E1,1.23E2,2.4E1,7E0,6.2E1,1.76E2,4.94E2,1.17E2,2.75E2,1E2,4.2E1,1.83E2],"tree_param":{"num_deleted":"0","num_feature":"90","num_nodes":"63","size_leaf_vector":"0"}},{"base_weights":[-2.398232E-1,-2.8676224E-1,1.2619075E0,-3.1607553E-1,6.217731E-1,9.076093E-1,2.8150623E0,-3.201004E-1,2.1343672E0,3.640166E-1,1.5881388E0,1.140143E0,5.3653175E-1,2.5477345E0,4.473123E0,-3.5562694E-1,-1.08924784E-1,1.209861E0,2.935423E0,5.902708E-1,3.4668155E-2,9.0498114E-1,2.1477344E0,9.553869E-1,1.7218655E0,4.9503922E-1,1.8272058E0,4.616955E0,2.3521411E0,8.707217E0,3.9805539E0,-3.6372378E-1,-4.9399327E-2,-2.1333654E-1,2.4433184E-1,9.291429E-1,3.0659945E0,6.5093102E0,2.0404599E0,9.116673E-1,1.487758E-1,-3.1289406E-2,8.1853974E-1,2.040674E0,7.627243E-1,2.8931794E0,1.5021712E0,8.225361E-1,1.9220091E0,3.3217015E0,1.1755176E0,3.7530735E-1,7.9576206E-1,2.5106792E0,1.3993596E0,6.085251E0,2.2900672E0,2.7552774E0,1.6030531E0,4.9308643E0,1.03613405E1,3.1281219E0,5.927419E0],"categories":[],"categories_nodes":[],"categories_segments":[],"categories_sizes":[],"default_left":[1,1,1,1,1,1,1,1,1,1,1,1,1,1,1,1,1,1,1,1,1,1,1,1,1,1,1,1,1,1,1,0,0,0,0,0,0,0,0,0,0,0,0,0,0,0,0,0,0,0,0,0,0,0,0,0,0,0,0,0,0,0,0],"id":7,"left_children":[1,3,5,7,9,11,13,15,17,19,21,23,25,27,29,31,33,35,37,39,41,43,45,47,49,51,53,55,57,59,61,-1,-1,-1,-1,-1,-1,-1,-1,-1,-1,-1,-1,-1,-1,-1,-1,-1,-1,-1,-1,-1,-1,-1,-1,-1,-1,-1,-1,-1,-1,-1,-1],"loss_changes":[1.8161203E4,6.653715E3,4.294582E3,2.38767E3,1.9445435E3,5.481802E2,6.3131055E2,1.8127227E3,2.9045923E2,4.5944818E2,6.2654443E2,4.1848242E2,1.3040833E2,4.9545166E2,3.8245703E2,5.1281055E2,1.2835098E3,9.406659E1,6.6479944E2,5.184905E2,1.2990169E2,1.1832117E2,4.3020605E2,3.796875E2,8.185925E2,8.528778E1,1.8710693E1,3.51636E2,3.4135547E2,7.38407E1,2.8184082E2,0E0,0E0,0E0,0E0,0E0,0E0,0E0,0E0,0E0,0E0,0E0,0E0,0E0,0E0,0E0,0E0,0E0,0E0,0E0,0E0,0E0,0E0,0E0,0E0,0E0,0E0,0E0,0E0,0E0,0E0,0E0,0E0],"parents":[2147483647,0,0,1,1,2,2,3,3,4,4,5,5,6,6,7,7,8,8,9,9,10,10,11,11,12,12,13,13,14,14,15,15,16,16,17,17,18,18,19,19,20,20,21,21,22,22,23,23,24,24,25,25,26,26,27,27,28,28,29,29,30,30],"right_children":[2,4,6,8,10,12,14,16,18,20,22,24,26,28,30,32,34,36,38,40,42,44,46,48,50,52,54,56,58,60,62,-1,-1,-1,-1,-1,-1,-1,-1,-1,-1,-1,-1,-1,-1,-1,-1,-1,-1,-1,-1,-1,-1,-1,-1,-1,-1,-1,-1,-1,-1,-1,-1],"split_conditions":[5E-1,5E-1,1.058363E0,9.203985E0,9.621792E-1,-1.7014262E-1,5.2715635E0,-1.4357439E-1,5E-1,5E-1,-1.4642539E-2,5E-1,5E-1,-9.0038204E-1,-1.3280344E0,5E-1,1.058363E0,5E-1,-6.6192783E-3,-6.6192783E-3,6.73628E-1,-2.1876226E-1,8.419527E-1,5E-1,-6.6192783E-3,3.5301542E-1,-6.7552036E-1,9.5576465E-1,1.3789754E0,-6.6299397E-1,7.5278707E0,-3.637238E-2,-4.939933E-3,-2.1333655E-2,2.4433184E-2,9.291429E-2,3.0659947E-1,6.5093106E-1,2.04046E-1,9.116673E-2,1.487758E-2,-3.1289407E-3,8.185398E-2,2.040674E-1,7.627243E-2,2.8931794E-1,1.5021712E-1,8.225361E-2,1.9220091E-1,3.3217016E-1,1.1755176E-1,3.7530735E-2,7.957621E-2,2.5106794E-1,1.3993596E-1,6.085251E-1,2.2900672E-1,2.7552775E-1,1.603053E-1,4.9308643E-1,1.0361341E0,3.1281218E-1,5.927419E-1],"split_indices":[18,9,0,1,0,3,1,1,57,84,1,73,41,3,5,36,0,47,2,2,0,2,2,83,2,0,5,5,0,3,1,0,0,0,0,0,0,0,0,0,0,0,0,0,0,0,0,0,0,0,0,0,0,0,0,0,0,0,0,0,0,0,0],"split_type":[0,0,0,0,0,0,0,0,0,0,0,0,0,0,0,0,0,0,0,0,0,0,0,0,0,0,0,0,0,0,0,0,0,0,0,0,0,0,0,0,0,0,0,0,0,0,0,0,0,0,0,0,0,0,0,0,0,0,0,0,0,0,0],"sum_hessian":[2.57637E5,2.49829E5,7.808E3,2.42021E5,7.808E3,6.359E3,1.449E3,2.41625E5,3.96E2,6.165E3,1.643E3,3.908E3,2.451E3,1.25E3,1.99E2,2.06829E5,3.4796E4,1.85E2,2.11E2,3.654E3,2.511E3,7.41E2,9.02E2,2.968E3,9.4E2,2.376E3,7.5E1,1.06E2,1.144E3,1.9E1,1.8E2,2.01501E5,5.328E3,2.6858E4,7.938E3,1.62E2,2.3E1,4.1E1,1.7E2,2.114E3,1.54E3,2.317E3,1.94E2,8.1E1,6.6E2,4.17E2,4.85E2,2.611E3,3.57E2,2.38E2,7.02E2,1.701E3,6.75E2,2.7E1,4.8E1,6.4E1,4.2E1,7.42E2,4.02E2,7E0,1.2E1,1.27E2,5.3E1],"tree_param":{"num_deleted":"0","num_feature":"90","num_nodes":"63","size_leaf_vector":"0"}},{"base_weights":[-2.1581349E-1,-2.5807753E-1,1.1363493E0,-2.8446296E-1,5.597117E-1,8.170421E-1,2.5361133E0,-3.012814E-1,2.2020581E-1,2.2192094E-1,1.196999E0,7.780262E-1,2.7728896E0,1.9273398E0,3.1644106E0,-3.1478944E-1,9.0400696E-2,-5.6657577E-3,1.2128271E0,3.8818327E-1,-1.715777E-1,2.6790862E0,7.8943706E-1,4.5230904E-1,9.562906E-1,1.4454079E0,3.0935123E0,2.9250395E0,1.5618256E0,2.851779E0,5.094043E0,-3.2666683E-1,1.7740587E-2,-4.1993722E-2,3.402281E-1,1.121979E0,-1.19444095E-1,2.4428415E0,3.8240948E-1,1.0732906E0,2.9972976E-1,-2.011548E-1,5.759075E-1,3.176554E0,1.4719012E0,1.6783302E-1,1.5267389E0,5.5501425E-1,5.3186055E-2,7.878828E-1,1.481737E0,2.242367E0,4.7595873E-1,2.4920819E0,3.9183202E0,3.252215E0,1.677662E0,1.3778983E0,2.992564E0,4.8081203E0,2.5876093E0,3.8963404E0,7.0485206E0],"categories":[],"categories_nodes":[],"categories_segments":[],"categories_sizes":[],"default_left":[1,1,1,1,1,1,1,1,1,1,1,1,1,1,1,1,1,1,1,1,1,1,1,1,1,1,1,1,1,1,1,0,0,0,0,0,0,0,0,0,0,0,0,0,0,0,0,0,0,0,0,0,0,0,0,0,0,0,0,0,0,0,0],"id":8,"left_children":[1,3,5,7,9,11,13,15,17,19,21,23,25,27,29,31,33,35,37,39,41,43,45,47,49,51,53,55,57,59,61,-1,-1,-1,-1,-1,-1,-1,-1,-1,-1,-1,-1,-1,-1,-1,-1,-1,-1,-1,-1,-1,-1,-1,-1,-1,-1,-1,-1,-1,-1,-1,-1],"loss_changes":[1.4723755E4,5.390922E3,3.4881982E3,2.0542832E3,1.6807759E3,4.8316895E2,5.485127E2,1.2392402E3,1.7501506E3,3.3405615E2,1.6318193E3,3.6171094E2,4.8305542E1,2.649248E2,4.1499707E2,8.9422656E2,2.5830286E2,8.161318E2,1.4770688E3,2.1717224E2,3.365436E1,3.4543652E2,9.7273535E2,9.0480835E1,3.5544434E2,1.9020622E1,3.934558E1,7.494177E1,1.3876807E2,3.0539404E2,2.0194312E2,0E0,0E0,0E0,0E0,0E0,0E0,0E0,0E0,0E0,0E0,0E0,0E0,0E0,0E0,0E0,0E0,0E0,0E0,0E0,0E0,0E0,0E0,0E0,0E0,0E0,0E0,0E0,0E0,0E0,0E0,0E0,0E0],"parents":[2147483647,0,0,1,1,2,2,3,3,4,4,5,5,6,6,7,7,8,8,9,9,10,10,11,11,12,12,13,13,14,14,15,15,16,16,17,17,18,18,19,19,20,20,21,21,22,22,23,23,24,24,25,25,26,26,27,27,28,28,29,29,30,30],"right_children":[2,4,6,8,10,12,14,16,18,20,22,24,26,28,30,32,34,36,38,40,42,44,46,48,50,52,54,56,58,60,62,-1,-1,-1,-1,-1,-1,-1,-1,-1,-1,-1,-1,-1,-1,-1,-1,-1,-1,-1,-1,-1,-1,-1,-1,-1,-1,-1,-1,-1,-1,-1,-1],"split_conditions":[5E-1,5E-1,1.058363E0,5E-1,5E-1,7.076609E0,5E-1,5E-1,1.058363E0,1.0537517E0,-6.6192783E-3,-7.910846E-2,-4.9670184E-1,1.1866078E0,5.4004955E0,5E-1,5E-1,-1.5065371E0,8.419527E-1,-1.4916203E0,1.5072205E0,1.0537517E0,2.888929E-1,5E-1,5E-1,-5.3345484E-1,7.8502007E0,9.5576465E-1,1.2676721E0,-8.959637E-1,-5.2381474E-1,-3.2666683E-2,1.7740587E-3,-4.199372E-3,3.402281E-2,1.121979E-1,-1.1944409E-2,2.4428415E-1,3.824095E-2,1.0732906E-1,2.9972976E-2,-2.011548E-2,5.7590753E-2,3.176554E-1,1.4719012E-1,1.6783303E-2,1.5267389E-1,5.5501428E-2,5.318606E-3,7.878828E-2,1.481737E-1,2.2423671E-1,4.7595873E-2,2.492082E-1,3.9183202E-1,3.252215E-1,1.677662E-1,1.3778983E-1,2.992564E-1,4.8081204E-1,2.5876093E-1,3.8963404E-1,7.0485204E-1],"split_indices":[18,9,0,36,73,1,88,13,0,3,2,1,3,0,1,14,73,0,2,2,0,3,0,67,73,3,1,5,4,3,3,0,0,0,0,0,0,0,0,0,0,0,0,0,0,0,0,0,0,0,0,0,0,0,0,0,0,0,0,0,0,0,0],"split_type":[0,0,0,0,0,0,0,0,0,0,0,0,0,0,0,0,0,0,0,0,0,0,0,0,0,0,0,0,0,0,0,0,0,0,0,0,0,0,0,0,0,0,0,0,0,0,0,0,0,0,0,0,0,0,0,0,0,0,0,0,0,0,0],"sum_hessian":[2.57637E5,2.49829E5,7.808E3,2.42021E5,7.808E3,6.359E3,1.449E3,2.34216E5,7.805E3,5.104E3,2.704E3,6.236E3,1.23E2,7.38E2,7.11E2,2.26408E5,7.808E3,6.359E3,1.446E3,3.588E3,1.516E3,5.82E2,2.122E3,2.207E3,4.029E3,2.5E1,9.8E1,1.96E2,5.42E2,6.14E2,9.7E1,2.186E5,7.808E3,5.104E3,2.704E3,5.82E2,5.777E3,5.82E2,8.64E2,4.09E2,3.179E3,1.459E3,5.7E1,4.11E2,1.71E2,1.152E3,9.7E2,1.755E3,4.52E2,3.053E3,9.76E2,1.3E1,1.2E1,5.9E1,3.9E1,1.54E2,4.2E1,4.82E2,6E1,7.1E1,5.43E2,6.2E1,3.5E1],"tree_param":{"num_deleted":"0","num_feature":"90","num_nodes":"63","size_leaf_vector":"0"}},{"base_weights":[-1.9421212E-1,-2.3226501E-1,1.0232221E0,-2.560151E-1,5.0384414E-1,7.355266E-1,2.2844083E0,-2.594988E-1,1.8649195E0,1.9976307E-1,1.0775335E0,6.216104E-1,1.3285301E0,2.8229015E0,1.660234E0,-2.901615E-1,-7.723528E-2,1.1145029E0,2.6365588E0,3.494032E-1,-1.5439522E-1,1.9012465E0,4.5410508E-1,3.8781214E-1,9.334786E-1,1.1893978E0,2.8713279E0,2.1959808E0,3.4555166E0,2.6828406E0,1.4179051E0,-2.967461E-1,-2.9019685E-2,-1.6976015E-1,2.3580196E-1,5.569964E-1,2.0008018E0,3.8109238E0,1.005959E0,5.412976E-1,8.240922E-2,-1.8105309E-1,5.1930976E-1,7.6953346E-1,2.2703037E0,-1.8613653E-1,8.428504E-1,7.3975396E-1,2.6582706E-1,2.08934E0,8.0315876E-1,1.5244004E0,7.163345E-1,7.280575E-1,3.0268607E0,1.8123146E0,3.1190562E0,5.0573153E0,3.0959594E0,4.2632737E0,2.0180702E0,1.11973E0,2.6478627E0],"categories":[],"categories_nodes":[],"categories_segments":[],"categories_sizes":[],"default_left":[1,1,1,1,1,1,1,1,1,1,1,1,1,1,1,1,1,1,1,1,1,1,1,1,1,1,1,1,1,1,1,0,0,0,0,0,0,0,0,0,0,0,0,0,0,0,0,0,0,0,0,0,0,0,0,0,0,0,0,0,0,0,0],"id":9,"left_children":[1,3,5,7,9,11,13,15,17,19,21,23,25,27,29,31,33,35,37,39,41,43,45,47,49,51,53,55,57,59,61,-1,-1,-1,-1,-1,-1,-1,-1,-1,-1,-1,-1,-1,-1,-1,-1,-1,-1,-1,-1,-1,-1,-1,-1,-1,-1,-1,-1,-1,-1,-1,-1],"loss_changes":[1.1935801E4,4.3678213E3,2.8317178E3,1.7887168E3,1.3620498E3,4.2880933E2,4.8267822E2,1.3503506E3,2.2694482E2,2.706E2,1.3882251E3,3.887815E2,2.1638953E2,3.0056934E2,1.6321802E2,3.5564062E2,1.0078909E3,9.919141E1,3.6957556E2,1.8383655E2,2.733865E1,4.8483447E2,3.8369778E2,1.3083075E2,3.4266565E2,1.4803516E2,2.5797546E1,1.3352942E2,2.060791E2,1.2587634E2,1.9764343E2,0E0,0E0,0E0,0E0,0E0,0E0,0E0,0E0,0E0,0E0,0E0,0E0,0E0,0E0,0E0,0E0,0E0,0E0,0E0,0E0,0E0,0E0,0E0,0E0,0E0,0E0,0E0,0E0,0E0,0E0,0E0,0E0],"parents":[2147483647,0,0,1,1,2,2,3,3,4,4,5,5,6,6,7,7,8,8,9,9,10,10,11,11,12,12,13,13,14,14,15,15,16,16,17,17,18,18,19,19,20,20,21,21,22,22,23,23,24,24,25,25,26,26,27,27,28,28,29,29,30,30],"right_children":[2,4,6,8,10,12,14,16,18,20,22,24,26,28,30,32,34,36,38,40,42,44,46,48,50,52,54,56,58,60,62,-1,-1,-1,-1,-1,-1,-1,-1,-1,-1,-1,-1,-1,-1,-1,-1,-1,-1,-1,-1,-1,-1,-1,-1,-1,-1,-1,-1,-1,-1,-1,-1],"split_conditions":[5E-1,5E-1,1.058363E0,9.203985E0,5E-1,1.2676721E0,1.314853E0,-1.4357439E-1,1.2104952E1,1.0537517E0,6.2980974E-1,8.2341444E-1,7.3344727E0,5E-1,-1.1105297E0,5E-1,1.058363E0,-4.1355577E-1,7.358812E-1,5E-1,1.5072205E0,-2.0804033E-1,-8.653121E-1,-1.0017774E0,-1.5065371E0,5E-1,-4.997144E-1,2.5317616E0,-1.2192819E0,1.3789754E0,1.2676721E0,-2.967461E-2,-2.9019685E-3,-1.6976016E-2,2.3580197E-2,5.5699643E-2,2.0008019E-1,3.810924E-1,1.0059591E-1,5.412976E-2,8.240922E-3,-1.810531E-2,5.1930975E-2,7.6953344E-2,2.2703038E-1,-1.8613653E-2,8.428504E-2,7.39754E-2,2.6582707E-2,2.08934E-1,8.031588E-2,1.5244004E-1,7.163345E-2,7.2805755E-2,3.0268607E-1,1.8123147E-1,3.1190562E-1,5.057315E-1,3.0959594E-1,4.2632738E-1,2.0180702E-1,1.11973E-1,2.6478627E-1],"split_indices":[18,9,0,1,73,4,0,1,1,3,2,1,1,88,5,11,0,3,2,84,0,1,0,5,0,84,3,1,5,0,4,0,0,0,0,0,0,0,0,0,0,0,0,0,0,0,0,0,0,0,0,0,0,0,0,0,0,0,0,0,0,0,0],"split_type":[0,0,0,0,0,0,0,0,0,0,0,0,0,0,0,0,0,0,0,0,0,0,0,0,0,0,0,0,0,0,0,0,0,0,0,0,0,0,0,0,0,0,0,0,0,0,0,0,0,0,0,0,0,0,0,0,0,0,0,0,0,0,0],"sum_hessian":[2.57637E5,2.49829E5,7.808E3,2.42021E5,7.808E3,6.359E3,1.449E3,2.41625E5,3.96E2,5.104E3,2.704E3,5.336E3,1.023E3,7.76E2,6.73E2,2.06829E5,3.4796E4,2.02E2,1.94E2,3.588E3,1.516E3,1.164E3,1.54E3,3.051E3,2.285E3,9.4E2,8.3E1,3.92E2,3.84E2,1.27E2,5.46E2,2.01742E5,5.087E3,2.6858E4,7.938E3,1.25E2,7.7E1,1.12E2,8.2E1,2.087E3,1.501E3,1.459E3,5.7E1,2.87E2,8.77E2,5.82E2,9.58E2,7.84E2,2.267E3,2.3E2,2.055E3,5.49E2,3.91E2,6E0,7.7E1,2.79E2,1.13E2,6.8E1,3.16E2,3.6E1,9.1E1,4.41E2,1.05E2],"tree_param":{"num_deleted":"0","num_feature":"90","num_nodes":"63","size_leaf_vector":"0"}},{"base_weights":[-1.7477353E-1,-2.0903379E-1,9.213228E-1,-2.3041064E-1,4.5351937E-1,6.621296E-1,2.0575628E0,-2.4515422E-1,2.1199581E-1,2.5573593E-1,1.1950517E0,5.6087995E-1,1.2317731E0,1.392745E0,2.518585E0,-2.5703952E-1,9.947154E-2,4.8620602E-1,-4.3861955E-1,1.518347E-1,7.7793765E-1,9.164373E-1,2.2376094E0,1.2890619E0,4.726868E-1,1.4716321E0,2.0662491E-1,2.1946385E0,1.110839E0,3.8721406E0,2.2481375E0,-2.6747197E-1,3.5034053E-2,2.3348063E-2,4.3329623E-1,6.8936005E-2,1.3636129E0,-4.855335E-1,1.6123768E0,7.424021E-1,9.1036364E-2,1.8842729E0,6.520281E-1,1.2954415E0,3.9467174E-1,6.6128607E0,1.9055856E0,-2.730511E-1,2.0688124E0,3.4457666E-1,9.8015475E-1,1.2464627E0,2.6361442E0,-5.5888258E-2,7.198504E-1,1.6998867E0,3.8908243E0,9.3697625E-1,2.3203259E0,3.3283305E0,6.384535E0,1.4911401E0,2.9305055E0],"categories":[],"categories_nodes":[],"categories_segments":[],"categories_sizes":[],"default_left":[1,1,1,1,1,1,1,1,1,1,1,1,1,1,1,1,1,1,1,1,1,1,1,1,1,1,1,1,1,1,1,0,0,0,0,0,0,0,0,0,0,0,0,0,0,0,0,0,0,0,0,0,0,0,0,0,0,0,0,0,0,0,0],"id":10,"left_children":[1,3,5,7,9,11,13,15,17,19,21,23,25,27,29,31,33,35,37,39,41,43,45,47,49,51,53,55,57,59,61,-1,-1,-1,-1,-1,-1,-1,-1,-1,-1,-1,-1,-1,-1,-1,-1,-1,-1,-1,-1,-1,-1,-1,-1,-1,-1,-1,-1,-1,-1,-1,-1],"loss_changes":[9.675157E3,3.5385215E3,2.298433E3,1.5786768E3,1.144984E3,3.6612964E2,4.4091113E2,9.5937305E2,1.3928455E3,3.3443307E2,4.7548462E2,3.4631067E2,2.3550525E2,1.3229297E2,3.0428125E2,6.898877E2,1.9843138E2,2.0106129E3,2.2353302E2,1.8463036E2,1.4127344E2,2.5636768E2,4.900282E2,7.10693E2,3.1301904E2,2.0045325E2,2.4695536E1,1.2262146E2,9.0982056E1,1.7139355E2,3.6496387E2,0E0,0E0,0E0,0E0,0E0,0E0,0E0,0E0,0E0,0E0,0E0,0E0,0E0,0E0,0E0,0E0,0E0,0E0,0E0,0E0,0E0,0E0,0E0,0E0,0E0,0E0,0E0,0E0,0E0,0E0,0E0,0E0],"parents":[2147483647,0,0,1,1,2,2,3,3,4,4,5,5,6,6,7,7,8,8,9,9,10,10,11,11,12,12,13,13,14,14,15,15,16,16,17,17,18,18,19,19,20,20,21,21,22,22,23,23,24,24,25,25,26,26,27,27,28,28,29,29,30,30],"right_children":[2,4,6,8,10,12,14,16,18,20,22,24,26,28,30,32,34,36,38,40,42,44,46,48,50,52,54,56,58,60,62,-1,-1,-1,-1,-1,-1,-1,-1,-1,-1,-1,-1,-1,-1,-1,-1,-1,-1,-1,-1,-1,-1,-1,-1,-1,-1,-1,-1,-1,-1,-1,-1],"split_conditions":[5E-1,5E-1,1.058363E0,5E-1,9.621792E-1,5E-1,3.72153E-1,5E-1,1.0537517E0,1.5325396E0,1.6614715E0,-1.5065371E0,9.480242E-1,1.1866078E0,-1.2192819E0,5E-1,1.058363E0,5E-1,5.722825E0,-1.5065371E0,-1.5065371E0,1.314853E0,-1.3280344E0,-1.6347821E0,5.774442E-1,1.2676721E0,1.1779771E0,9.5927453E-1,1.2676721E0,5.4004955E0,3.032506E-1,-2.6747197E-2,3.5034053E-3,2.3348064E-3,4.3329623E-2,6.893601E-3,1.3636129E-1,-4.855335E-2,1.6123769E-1,7.424021E-2,9.103636E-3,1.884273E-1,6.520281E-2,1.2954415E-1,3.9467175E-2,6.6128606E-1,1.9055857E-1,-2.7305111E-2,2.0688124E-1,3.4457665E-2,9.801548E-2,1.2464627E-1,2.6361442E-1,-5.588826E-3,7.198504E-2,1.6998868E-1,3.8908243E-1,9.369763E-2,2.3203258E-1,3.3283305E-1,6.384535E-1,1.4911401E-1,2.9305056E-1],"split_indices":[18,9,0,36,0,83,1,13,3,1,1,0,2,0,5,14,0,57,1,0,0,0,5,0,0,4,1,4,4,1,5,0,0,0,0,0,0,0,0,0,0,0,0,0,0,0,0,0,0,0,0,0,0,0,0,0,0,0,0,0,0,0,0],"split_type":[0,0,0,0,0,0,0,0,0,0,0,0,0,0,0,0,0,0,0,0,0,0,0,0,0,0,0,0,0,0,0,0,0,0,0,0,0,0,0,0,0,0,0,0,0,0,0,0,0,0,0,0,0,0,0,0,0,0,0,0,0,0,0],"sum_hessian":[2.57637E5,2.49829E5,7.808E3,2.42021E5,7.808E3,6.359E3,1.449E3,2.34216E5,7.805E3,6.165E3,1.643E3,5.401E3,9.58E2,5.95E2,8.54E2,2.26408E5,7.808E3,5.491E3,2.314E3,5.143E3,1.022E3,1.298E3,3.45E2,5.82E2,4.819E3,7.76E2,1.82E2,1.53E2,4.42E2,1.4E2,7.14E2,2.186E5,7.808E3,6.359E3,1.449E3,3.722E3,1.769E3,2.263E3,5.1E1,4.79E2,4.664E3,1.03E2,9.19E2,7.51E2,5.47E2,2.3E1,3.22E2,1.94E2,3.88E2,3.849E3,9.7E2,6.52E2,1.24E2,1.21E2,6.1E1,1.2E2,3.3E1,3.88E2,5.4E1,1.17E2,2.3E1,3.4E2,3.74E2],"tree_param":{"num_deleted":"0","num_feature":"90","num_nodes":"63","size_leaf_vector":"0"}},{"base_weights":[-1.5727793E-1,-1.8812387E-1,8.2958305E-1,-2.0736843E-1,4.083413E-1,5.9603715E-1,1.8533915E0,-2.1033703E-1,1.5999321E0,1.5451452E-1,8.8722384E-1,4.908596E-1,1.1001927E0,2.7085347E0,1.538416E0,-2.4428722E-1,-8.634854E-2,1.3013316E0,3.288502E0,2.8522882E-1,-1.5483826E-1,2.1285963E0,5.459109E-1,1.0652429E0,3.6184314E-1,2.7636747E0,9.231878E-1,4.7013364E0,2.3163173E0,2.6313643E0,1.2833428E0,-2.497699E-1,2.8989152E-3,-1.5897608E-1,1.5440707E-1,1.4780272E0,-1.8083365E-1,4.6933894E0,8.8548756E-1,8.8645136E-1,2.0762302E-1,1.0259737E-1,-2.2401838E-1,2.5778935E0,1.2213904E0,5.840721E-2,1.124228E0,1.6977978E0,4.8328733E-1,2.840348E-1,9.147742E-1,1.8900658E0,1.686321E1,7.77922E-1,2.3545268E0,3.5580137E0,1.725228E1,1.9217496E0,3.8771634E0,3.483648E0,1.5929917E0,9.353095E-1,2.7390292E0],"categories":[],"categories_nodes":[],"categories_segments":[],"categories_sizes":[],"default_left":[1,1,1,1,1,1,1,1,1,1,1,1,1,1,1,1,1,1,1,1,1,1,1,1,1,1,1,1,1,1,1,0,0,0,0,0,0,0,0,0,0,0,0,0,0,0,0,0,0,0,0,0,0,0,0,0,0,0,0,0,0,0,0],"id":11,"left_children":[1,3,5,7,9,11,13,15,17,19,21,23,25,27,29,31,33,35,37,39,41,43,45,47,49,51,53,55,57,59,61,-1,-1,-1,-1,-1,-1,-1,-1,-1,-1,-1,-1,-1,-1,-1,-1,-1,-1,-1,-1,-1,-1,-1,-1,-1,-1,-1,-1,-1,-1,-1,-1],"loss_changes":[7.842823E3,2.8678115E3,1.8660767E3,1.2988213E3,9.490719E2,3.3670435E2,3.8638916E2,1.0170869E3,1.9589105E2,2.0647421E2,1.144937E3,3.8970264E2,3.204541E2,2.9315698E2,2.9268945E2,2.570703E2,9.082384E2,8.9048645E1,1.95026E2,1.672728E2,2.703989E1,2.344851E2,5.984754E2,3.544143E2,1.8473761E2,1.2614629E3,2.0463745E2,8.4265247E2,1.9393518E2,1.7144812E2,4.3465747E2,0E0,0E0,0E0,0E0,0E0,0E0,0E0,0E0,0E0,0E0,0E0,0E0,0E0,0E0,0E0,0E0,0E0,0E0,0E0,0E0,0E0,0E0,0E0,0E0,0E0,0E0,0E0,0E0,0E0,0E0,0E0,0E0],"parents":[2147483647,0,0,1,1,2,2,3,3,4,4,5,5,6,6,7,7,8,8,9,9,10,10,11,11,12,12,13,13,14,14,15,15,16,16,17,17,18,18,19,19,20,20,21,21,22,22,23,23,24,24,25,25,26,26,27,27,28,28,29,29,30,30],"right_children":[2,4,6,8,10,12,14,16,18,20,22,24,26,28,30,32,34,36,38,40,42,44,46,48,50,52,54,56,58,60,62,-1,-1,-1,-1,-1,-1,-1,-1,-1,-1,-1,-1,-1,-1,-1,-1,-1,-1,-1,-1,-1,-1,-1,-1,-1,-1,-1,-1,-1,-1,-1,-1],"split_conditions":[5E-1,5E-1,1.058363E0,9.203985E0,5E-1,3.5309834E0,1.1866078E0,-2.0804033E-1,1.3523201E1,1.0537517E0,-6.6192783E-3,-8.152276E-1,-1.3280344E0,-8.152276E-1,-1.1105297E0,5E-1,1.058363E0,5E-1,7.358812E-1,-1.4916203E0,-1.1105297E0,5E-1,2.888929E-1,5E-1,1.2676721E0,5E-1,7.3344727E0,-8.240644E-1,4.820302E0,1.3789754E0,1.2676721E0,-2.497699E-2,2.8989153E-4,-1.5897607E-2,1.5440707E-2,1.4780273E-1,-1.8083366E-2,4.6933895E-1,8.854876E-2,8.864514E-2,2.0762302E-2,1.0259737E-2,-2.2401838E-2,2.5778934E-1,1.2213904E-1,5.840721E-3,1.124228E-1,1.6977978E-1,4.8328735E-2,2.840348E-2,9.147742E-2,1.8900658E-1,1.6863211E0,7.77922E-2,2.3545268E-1,3.5580137E-1,1.725228E0,1.9217496E-1,3.8771635E-1,3.483648E-1,1.5929918E-1,9.353095E-2,2.7390292E-1],"split_indices":[18,9,0,1,73,1,0,1,1,3,2,3,5,3,5,11,0,39,2,2,5,41,0,80,4,79,1,3,1,0,4,0,0,0,0,0,0,0,0,0,0,0,0,0,0,0,0,0,0,0,0,0,0,0,0,0,0,0,0,0,0,0,0],"split_type":[0,0,0,0,0,0,0,0,0,0,0,0,0,0,0,0,0,0,0,0,0,0,0,0,0,0,0,0,0,0,0,0,0,0,0,0,0,0,0,0,0,0,0,0,0,0,0,0,0,0,0,0,0,0,0,0,0,0,0,0,0,0,0],"sum_hessian":[2.57637E5,2.49829E5,7.808E3,2.42021E5,7.808E3,6.359E3,1.449E3,2.41625E5,3.96E2,5.104E3,2.704E3,5.263E3,1.096E3,3.88E2,1.061E3,1.89685E5,5.194E4,3.38E2,5.8E1,3.588E3,1.516E3,5.82E2,2.122E3,9.64E2,4.299E3,1.04E2,9.92E2,6.2E1,3.26E2,1.99E2,8.62E2,1.85569E5,4.116E3,3.9903E4,1.2037E4,3.02E2,3.6E1,3.6E1,2.2E1,4.09E2,3.179E3,3.21E2,1.195E3,3.88E2,1.94E2,1.152E3,9.7E2,4.61E2,5.03E2,3.77E3,5.29E2,9.9E1,5E0,9.02E2,9E1,5.8E1,4E0,2.62E2,6.4E1,1.08E2,9.1E1,6.97E2,1.65E2],"tree_param":{"num_deleted":"0","num_feature":"90","num_nodes":"63","size_leaf_vector":"0"}},{"base_weights":[-1.4152172E-1,-1.6930643E-1,7.4740106E-1,-1.8662885E-1,3.6758342E-1,5.3683066E-1,1.670491E0,-1.995382E-1,2.0073725E-1,2.0500174E-1,9.7714E-1,4.467256E-1,1.0438284E0,1.9135336E0,6.746342E-1,-2.100284E-1,1.0463296E-1,4.6815622E-1,-3.6303034E-1,8.182849E-2,5.4886687E-1,1.3110443E0,2.4051951E-1,1.0989583E0,3.677425E-1,1.2588866E0,1.250084E-1,1.3778776E0,2.4570134E0,8.9169157E-1,2.0723407E-1,-2.1921045E-1,4.7036026E-2,-2.0864068E-3,3.0599996E-1,8.192575E-1,-3.5864022E-1,-3.9163533E-1,2.6515937E-1,-1.9654755E-3,5.37001E-1,1.4060358E0,4.5629945E-1,1.7112709E0,6.9250953E-1,9.7738713E-1,4.209811E-2,3.8444188E-1,2.5186913E0,2.5272945E-1,8.233888E-1,1.0665339E0,2.2536652E0,8.0415845E-1,-2.4242995E-2,1.6795087E0,6.183241E-1,2.906092E0,1.5048918E0,1.8133783E0,7.877156E-1,-6.580297E-1,3.207788E-1],"categories":[],"categories_nodes":[],"categories_segments":[],"categories_sizes":[],"default_left":[1,1,1,1,1,1,1,1,1,1,1,1,1,1,1,1,1,1,1,1,1,1,1,1,1,1,1,1,1,1,1,0,0,0,0,0,0,0,0,0,0,0,0,0,0,0,0,0,0,0,0,0,0,0,0,0,0,0,0,0,0,0,0],"id":12,"left_children":[1,3,5,7,9,11,13,15,17,19,21,23,25,27,29,31,33,35,37,39,41,43,45,47,49,51,53,55,57,59,61,-1,-1,-1,-1,-1,-1,-1,-1,-1,-1,-1,-1,-1,-1,-1,-1,-1,-1,-1,-1,-1,-1,-1,-1,-1,-1,-1,-1,-1,-1,-1,-1],"loss_changes":[6.363391E3,2.3235425E3,1.516981E3,1.2103086E3,7.736929E2,2.90078E2,3.496604E2,7.4736426E2,1.1770193E3,2.6111594E2,4.040442E2,2.778817E2,1.8934082E2,3.357671E2,2.8830673E1,5.344209E2,1.6781418E2,1.5373756E3,4.524289E1,1.7319801E2,1.2837488E2,2.7879883E2,7.5110954E1,5.9044E2,2.5238531E2,1.462738E2,1.8569126E1,1.3390442E2,2.4233911E2,1.7259048E1,9.249725E0,0E0,0E0,0E0,0E0,0E0,0E0,0E0,0E0,0E0,0E0,0E0,0E0,0E0,0E0,0E0,0E0,0E0,0E0,0E0,0E0,0E0,0E0,0E0,0E0,0E0,0E0,0E0,0E0,0E0,0E0,0E0,0E0],"parents":[2147483647,0,0,1,1,2,2,3,3,4,4,5,5,6,6,7,7,8,8,9,9,10,10,11,11,12,12,13,13,14,14,15,15,16,16,17,17,18,18,19,19,20,20,21,21,22,22,23,23,24,24,25,25,26,26,27,27,28,28,29,29,30,30],"right_children":[2,4,6,8,10,12,14,16,18,20,22,24,26,28,30,32,34,36,38,40,42,44,46,48,50,52,54,56,58,60,62,-1,-1,-1,-1,-1,-1,-1,-1,-1,-1,-1,-1,-1,-1,-1,-1,-1,-1,-1,-1,-1,-1,-1,-1,-1,-1,-1,-1,-1,-1,-1,-1],"split_conditions":[5E-1,5E-1,1.058363E0,5E-1,9.621792E-1,5E-1,1.4430978E0,5E-1,5E-1,1.0168122E0,1.0537517E0,-1.5065371E0,9.480242E-1,5E-1,1.5072205E0,5E-1,5E-1,1.0537517E0,4.820302E0,1.2676721E0,-1.5065371E0,1.314853E0,-1.1105297E0,-1.5706596E0,5.774442E-1,1.2676721E0,-8.045833E-1,8.470123E-1,9.5576465E-1,-1.3280344E0,-3.478824E-1,-2.1921044E-2,4.7036028E-3,-2.0864069E-4,3.0599996E-2,8.192575E-2,-3.586402E-2,-3.9163534E-2,2.6515936E-2,-1.9654755E-4,5.37001E-2,1.4060359E-1,4.5629945E-2,1.711271E-1,6.9250956E-2,9.773871E-2,4.209811E-3,3.8444187E-2,2.5186914E-1,2.5272945E-2,8.2338884E-2,1.0665339E-1,2.2536652E-1,8.0415845E-2,-2.4242995E-3,1.6795087E-1,6.183241E-2,2.906092E-1,1.5048918E-1,1.8133783E-1,7.877156E-2,-6.580297E-2,3.207788E-2],"split_indices":[18,9,0,36,0,83,0,13,84,1,3,0,2,88,0,14,73,3,1,4,0,0,5,0,0,4,3,5,5,5,3,0,0,0,0,0,0,0,0,0,0,0,0,0,0,0,0,0,0,0,0,0,0,0,0,0,0,0,0,0,0,0,0],"split_type":[0,0,0,0,0,0,0,0,0,0,0,0,0,0,0,0,0,0,0,0,0,0,0,0,0,0,0,0,0,0,0,0,0,0,0,0,0,0,0,0,0,0,0,0,0,0,0,0,0,0,0,0,0,0,0,0,0,0,0,0,0,0,0],"sum_hessian":[2.57637E5,2.49829E5,7.808E3,2.42021E5,7.808E3,6.359E3,1.449E3,2.34216E5,7.805E3,6.165E3,1.643E3,5.401E3,9.58E2,1.164E3,2.85E2,2.26408E5,7.808E3,5.294E3,2.511E3,4.54E3,1.625E3,1.13E3,5.13E2,5.82E2,4.819E3,7.76E2,1.82E2,5.88E2,5.76E2,1.94E2,9.1E1,2.186E5,7.808E3,5.104E3,2.704E3,3.716E3,1.578E3,2.402E3,1.09E2,3.835E3,7.05E2,1.57E2,1.468E3,6.85E2,4.45E2,1.08E2,4.05E2,3.88E2,1.94E2,3.849E3,9.7E2,6.52E2,1.24E2,3.2E1,1.5E2,4.2E2,1.68E2,3.9E2,1.86E2,1.8E1,1.76E2,1E1,8.1E1],"tree_param":{"num_deleted":"0","num_feature":"90","num_nodes":"63","size_leaf_vector":"0"}},{"base_weights":[-1.273605E-1,-1.5237328E-1,6.7287934E-1,-1.8417023E-1,9.65569E-2,4.832746E-1,1.5040606E0,-2.0416665E-1,-9.355036E-2,-1.1181501E-2,4.7321516E-1,2.8419477E-1,6.9720083E-1,1.3221614E0,2.764094E0,-2.0891933E-1,1.4243822E-2,-1.1228183E-1,5.942049E-1,-7.6110005E-2,3.6831546E-1,3.7541023E-1,1.9692156E0,1.8163458E-1,7.775019E-1,5.260953E-1,1.2172728E0,2.0902967E0,1.0477631E0,5.860231E0,2.388541E0,-2.1300167E-1,1.7550893E-2,-9.584018E-3,7.778349E-1,-1.2904386E-1,6.4450324E-1,1.6571218E0,1.6374605E-2,-1.2037113E-1,4.4820794E-1,5.44786E-1,3.5917297E-2,2.1825592E-1,1.3449628E0,3.7912776E0,6.6248477E-1,4.870112E-1,7.6698765E-2,6.732685E-1,3.2135756E0,3.855063E-1,1.0621114E0,2.2718682E0,7.8180265E-1,4.39022E0,1.6094811E0,1.8929782E0,8.4567016E-1,2.7352138E0,7.455223E0,1.6757802E0,3.8094285E0],"categories":[],"categories_nodes":[],"categories_segments":[],"categories_sizes":[],"default_left":[1,1,1,1,1,1,1,1,1,1,1,1,1,1,1,1,1,1,1,1,1,1,1,1,1,1,1,1,1,1,1,0,0,0,0,0,0,0,0,0,0,0,0,0,0,0,0,0,0,0,0,0,0,0,0,0,0,0,0,0,0,0,0],"id":13,"left_children":[1,3,5,7,9,11,13,15,17,19,21,23,25,27,29,31,33,35,37,39,41,43,45,47,49,51,53,55,57,59,61,-1,-1,-1,-1,-1,-1,-1,-1,-1,-1,-1,-1,-1,-1,-1,-1,-1,-1,-1,-1,-1,-1,-1,-1,-1,-1,-1,-1,-1,-1,-1,-1],"loss_changes":[5.1570444E3,1.9774775E3,1.2299395E3,4.0141455E2,1.148354E3,2.7066418E2,3.2868384E2,1.8839062E2,5.1600476E2,5.42235E2,9.201753E2,1.6661551E2,2.7210547E2,2.6528345E2,1.9762561E2,1.6421924E2,7.034826E1,4.94656E2,6.522379E2,4.3613483E2,1.8856744E2,9.0005695E2,9.1653296E2,8.744534E1,1.418092E2,1.7351666E2,3.463313E2,3.6117834E2,1.5845007E2,7.4311584E1,1.5970764E2,0E0,0E0,0E0,0E0,0E0,0E0,0E0,0E0,0E0,0E0,0E0,0E0,0E0,0E0,0E0,0E0,0E0,0E0,0E0,0E0,0E0,0E0,0E0,0E0,0E0,0E0,0E0,0E0,0E0,0E0,0E0,0E0],"parents":[2147483647,0,0,1,1,2,2,3,3,4,4,5,5,6,6,7,7,8,8,9,9,10,10,11,11,12,12,13,13,14,14,15,15,16,16,17,17,18,18,19,19,20,20,21,21,22,22,23,23,24,24,25,25,26,26,27,27,28,28,29,29,30,30],"right_children":[2,4,6,8,10,12,14,16,18,20,22,24,26,28,30,32,34,36,38,40,42,44,46,48,50,52,54,56,58,60,62,-1,-1,-1,-1,-1,-1,-1,-1,-1,-1,-1,-1,-1,-1,-1,-1,-1,-1,-1,-1,-1,-1,-1,-1,-1,-1,-1,-1,-1,-1,-1,-1],"split_conditions":[5E-1,-1.4642539E-2,1.058363E0,1.058363E0,1.058363E0,3.72153E-1,5.4004955E0,5E-1,5E-1,5E-1,5E-1,1.2676721E0,5E-1,1.1866078E0,-1.3280344E0,5E-1,5E-1,5E-1,-5.665927E-1,5E-1,5E-1,5E-1,8.419527E-1,-1.0017774E0,5E-1,6.73628E-1,-6.6192783E-3,-8.152276E-1,-1.1105297E0,-6.6299397E-1,7.5278707E0,-2.1300167E-2,1.7550894E-3,-9.584018E-4,7.778349E-2,-1.2904386E-2,6.445032E-2,1.6571218E-1,1.6374605E-3,-1.2037113E-2,4.4820797E-2,5.4478597E-2,3.5917298E-3,2.1825593E-2,1.3449629E-1,3.7912777E-1,6.624848E-2,4.870112E-2,7.669877E-3,6.732685E-2,3.2135758E-1,3.855063E-2,1.0621114E-1,2.2718683E-1,7.818027E-2,4.3902203E-1,1.6094811E-1,1.8929783E-1,8.456702E-2,2.735214E-1,7.455223E-1,1.6757803E-1,3.8094285E-1],"split_indices":[18,1,0,0,0,1,1,13,36,9,36,4,73,0,5,9,41,14,3,36,84,9,2,5,40,0,2,3,5,3,1,0,0,0,0,0,0,0,0,0,0,0,0,0,0,0,0,0,0,0,0,0,0,0,0,0,0,0,0,0,0,0,0],"split_type":[0,0,0,0,0,0,0,0,0,0,0,0,0,0,0,0,0,0,0,0,0,0,0,0,0,0,0,0,0,0,0,0,0,0,0,0,0,0,0,0,0,0,0,0,0,0,0,0,0,0,0,0,0,0,0,0,0,0,0,0,0,0,0],"sum_hessian":[2.57637E5,2.49829E5,7.808E3,2.21532E5,2.8297E4,6.359E3,1.449E3,1.81484E5,4.0048E4,2.2004E4,6.293E3,3.295E3,3.064E3,1.268E3,1.81E2,1.77619E5,3.865E3,3.8987E4,1.061E3,1.879E4,3.214E3,5.908E3,3.85E2,2.729E3,5.66E2,2.307E3,7.57E2,3.32E2,9.36E2,1.8E1,1.63E2,1.74474E5,3.145E3,3.749E3,1.16E2,3.8143E4,8.44E2,3.73E2,6.88E2,1.7328E4,1.462E3,2.099E3,1.115E3,5.085E3,8.23E2,1.6E2,2.25E2,6.97E2,2.032E3,5.44E2,2.2E1,1.829E3,4.78E2,2.2E2,5.37E2,5.6E1,2.76E2,1.79E2,7.57E2,7E0,1.1E1,1.1E2,5.3E1],"tree_param":{"num_deleted":"0","num_feature":"90","num_nodes":"63","size_leaf_vector":"0"}},{"base_weights":[-1.1460774E-1,-1.3713208E-1,6.060186E-1,-1.5518002E-1,2.3596103E-1,4.350879E-1,1.3553382E0,-1.7843454E-1,-5.848741E-2,1.01398475E-1,7.016832E-1,3.946069E-1,1.390981E0,8.295916E-1,1.7202384E0,-1.8415488E-1,2.6719267E-2,-8.527809E-2,3.8485792E-1,7.662362E-3,4.217176E-1,6.019385E-1,1.9844038E0,8.224248E-1,3.0859536E-1,7.080626E-1,1.7342899E0,6.015642E-1,1.5820189E0,1.930209E0,5.45056E-1,-1.8987577E-1,2.9527407E-2,-5.1453054E-2,4.3655363E-1,-1.1232611E-1,3.059118E-1,2.7323263E-2,1.0862225E0,-3.480126E-2,7.3665684E-1,1.1443266E0,3.458383E-1,4.2283332E-1,1.2451521E0,3.5172582E0,7.9435104E-1,1.4054348E0,3.3806697E-1,7.7203E-1,2.0091745E-1,9.539463E-1,2.0088919E-1,5.8937426E0,1.5473174E0,1.2782112E0,3.3031094E-1,3.7976382E0,1.1963516E0,3.164581E0,1.6947213E0,4.7991738E-1,1.822124E0],"categories":[],"categories_nodes":[],"categories_segments":[],"categories_sizes":[],"default_left":[1,1,1,1,1,1,1,1,1,1,1,1,1,1,1,1,1,1,1,1,1,1,1,1,1,1,1,1,1,1,1,0,0,0,0,0,0,0,0,0,0,0,0,0,0,0,0,0,0,0,0,0,0,0,0,0,0,0,0,0,0,0,0],"id":14,"left_children":[1,3,5,7,9,11,13,15,17,19,21,23,25,27,29,31,33,35,37,39,41,43,45,47,49,51,53,55,57,59,61,-1,-1,-1,-1,-1,-1,-1,-1,-1,-1,-1,-1,-1,-1,-1,-1,-1,-1,-1,-1,-1,-1,-1,-1,-1,-1,-1,-1,-1,-1,-1,-1],"loss_changes":[4.1819688E3,1.6822832E3,9.996008E2,5.3582324E2,7.223745E2,2.4555444E2,2.767483E2,2.2544678E2,5.4879803E2,2.6857462E2,3.2941443E2,2.2432E2,5.926059E1,1.0130646E2,2.099226E2,2.284707E2,1.6700298E2,4.6104468E2,6.6022705E2,2.1427034E2,1.10637146E2,2.758452E2,3.365031E2,2.8784045E2,2.5349509E2,1.0782463E1,1.238678E2,8.382388E1,1.1337656E2,2.053794E2,1.0022957E1,0E0,0E0,0E0,0E0,0E0,0E0,0E0,0E0,0E0,0E0,0E0,0E0,0E0,0E0,0E0,0E0,0E0,0E0,0E0,0E0,0E0,0E0,0E0,0E0,0E0,0E0,0E0,0E0,0E0,0E0,0E0,0E0],"parents":[2147483647,0,0,1,1,2,2,3,3,4,4,5,5,6,6,7,7,8,8,9,9,10,10,11,11,12,12,13,13,14,14,15,15,16,16,17,17,18,18,19,19,20,20,21,21,22,22,23,23,24,24,25,25,26,26,27,27,28,28,29,29,30,30],"right_children":[2,4,6,8,10,12,14,16,18,20,22,24,26,28,30,32,34,36,38,40,42,44,46,48,50,52,54,56,58,60,62,-1,-1,-1,-1,-1,-1,-1,-1,-1,-1,-1,-1,-1,-1,-1,-1,-1,-1,-1,-1,-1,-1,-1,-1,-1,-1,-1,-1,-1,-1,-1,-1],"split_conditions":[5E-1,7.5894856E-1,1.058363E0,-2.0804033E-1,1.058363E0,6.0451546E0,3.72153E-1,5E-1,5E-1,5E-1,4.820302E0,-8.152276E-1,-4.9670184E-1,9.5927453E-1,1.4430978E0,5E-1,1.058363E0,5E-1,5E-1,7.398939E0,-1.5065371E0,5E-1,8.419527E-1,5E-1,-1.2192819E0,-5.3345484E-1,6.10962E0,-9.4740117E-1,1.1224854E0,-1.2192819E0,7.4634047E0,-1.8987577E-2,2.9527408E-3,-5.1453053E-3,4.3655362E-2,-1.1232611E-2,3.059118E-2,2.7323263E-3,1.0862225E-1,-3.480126E-3,7.3665686E-2,1.14432655E-1,3.4583833E-2,4.2283334E-2,1.2451521E-1,3.5172582E-1,7.94351E-2,1.4054349E-1,3.3806697E-2,7.7203E-2,2.0091746E-2,9.539463E-2,2.0088919E-2,5.8937424E-1,1.5473174E-1,1.2782113E-1,3.3031095E-2,3.797638E-1,1.19635165E-1,3.164581E-1,1.6947214E-1,4.7991738E-2,1.822124E-1],"split_indices":[18,1,0,1,0,1,1,34,36,9,1,3,3,4,0,30,0,9,57,1,0,9,2,80,5,3,1,5,0,5,1,0,0,0,0,0,0,0,0,0,0,0,0,0,0,0,0,0,0,0,0,0,0,0,0,0,0,0,0,0,0,0,0],"split_type":[0,0,0,0,0,0,0,0,0,0,0,0,0,0,0,0,0,0,0,0,0,0,0,0,0,0,0,0,0,0,0,0,0,0,0,0,0,0,0,0,0,0,0,0,0,0,0,0,0,0,0,0,0,0,0,0,0,0,0,0,0,0,0],"sum_hessian":[2.57637E5,2.49829E5,7.808E3,2.38302E5,1.1527E4,6.359E3,1.449E3,1.92101E5,4.6201E4,8.944E3,2.583E3,6.102E3,2.57E2,5.95E2,8.54E2,1.8689E5,5.211E3,4.3569E4,2.632E3,6.92E3,2.024E3,2.398E3,1.85E2,1.02E3,5.082E3,8.7E1,1.7E2,4.58E2,1.37E2,7.24E2,1.3E2,1.82017E5,4.873E3,4.377E3,8.34E2,4.0752E4,2.817E3,1.744E3,8.88E2,6.54E3,3.8E2,1.91E2,1.833E3,1.877E3,5.21E2,8E1,1.05E2,4.62E2,5.58E2,9.57E2,4.125E3,5.8E1,2.9E1,6E0,1.64E2,1.3E2,3.28E2,1.9E1,1.18E2,1.14E2,6.1E2,1.25E2,5E0],"tree_param":{"num_deleted":"0","num_feature":"90","num_nodes":"63","size_leaf_vector":"0"}},{"base_weights":[-1.03133455E-1,-1.2341498E-1,5.4573786E-1,-1.3701472E-1,2.8168637E-1,3.03885E-1,1.001972E0,-1.445006E-1,1.5520184E-1,6.2418796E-2,5.641937E-1,1.7158456E-1,6.372551E-1,1.1724974E0,-5.414444E-2,-1.6500923E-1,-5.293832E-2,1.3304354E-2,4.4666988E-1,-1.6620338E-2,3.2938108E-1,1.1927842E0,3.832834E-1,9.140285E-2,8.447523E-1,8.790865E-1,3.5752165E-1,-4.296001E-1,1.3182757E0,5.464337E-2,-3.51967E-1,-1.7099066E-1,3.2884344E-2,-7.664356E-2,7.159793E-1,-6.8549745E-2,4.866421E-1,1.4633596E0,1.829911E-1,-7.367879E-2,4.5891076E-1,-1.9688307E-1,4.5976764E-1,1.0069362E0,4.487525E0,1.304118E-2,6.702604E-1,3.7821766E-2,9.355919E-1,6.338301E-1,1.9261304E0,1.6171086E0,8.014203E-1,3.171558E-1,1.8988868E0,-1.3150523E0,-3.4310687E-1,8.908243E-1,1.7881843E0,8.7482834E-1,-1.9548383E-2,-3.0218193E-1,-9.773403E-1],"categories":[],"categories_nodes":[],"categories_segments":[],"categories_sizes":[],"default_left":[1,1,1,1,1,1,1,1,1,1,1,1,1,1,1,1,1,1,1,1,1,1,1,1,1,1,1,1,1,1,1,0,0,0,0,0,0,0,0,0,0,0,0,0,0,0,0,0,0,0,0,0,0,0,0,0,0,0,0,0,0,0,0],"id":15,"left_children":[1,3,5,7,9,11,13,15,17,19,21,23,25,27,29,31,33,35,37,39,41,43,45,47,49,51,53,55,57,59,61,-1,-1,-1,-1,-1,-1,-1,-1,-1,-1,-1,-1,-1,-1,-1,-1,-1,-1,-1,-1,-1,-1,-1,-1,-1,-1,-1,-1,-1,-1,-1,-1],"loss_changes":[3.3906094E3,1.3764194E3,8.6135205E2,5.2877637E2,5.0264594E2,2.2504672E2,4.8721973E2,4.4255322E2,2.497172E2,9.64346E1,4.027887E2,1.9725812E2,9.777582E1,5.445066E2,1.223383E1,2.2792432E2,7.862014E2,1.5741406E2,5.2972546E2,9.5732155E1,7.1727486E1,4.8043982E2,2.9271283E2,1.4778465E2,8.750485E1,4.324115E1,4.133303E1,1.448299E1,4.272495E2,1.687282E1,2.849224E0,0E0,0E0,0E0,0E0,0E0,0E0,0E0,0E0,0E0,0E0,0E0,0E0,0E0,0E0,0E0,0E0,0E0,0E0,0E0,0E0,0E0,0E0,0E0,0E0,0E0,0E0,0E0,0E0,0E0,0E0,0E0,0E0],"parents":[2147483647,0,0,1,1,2,2,3,3,4,4,5,5,6,6,7,7,8,8,9,9,10,10,11,11,12,12,13,13,14,14,15,15,16,16,17,17,18,18,19,19,20,20,21,21,22,22,23,23,24,24,25,25,26,26,27,27,28,28,29,29,30,30],"right_children":[2,4,6,8,10,12,14,16,18,20,22,24,26,28,30,32,34,36,38,40,42,44,46,48,50,52,54,56,58,60,62,-1,-1,-1,-1,-1,-1,-1,-1,-1,-1,-1,-1,-1,-1,-1,-1,-1,-1,-1,-1,-1,-1,-1,-1,-1,-1,-1,-1,-1,-1,-1,-1],"split_conditions":[5E-1,1.274676E0,5E-1,5E-1,5E-1,5.774442E-1,1.2662387E0,1.058363E0,5E-1,5E-1,-6.6192783E-3,5E-1,8.659954E-1,-1.6347821E0,9.5576465E-1,5E-1,5E-1,1.2676721E0,-6.6192783E-3,6.238552E0,-6.088221E-1,9.7519455E0,2.888929E-1,5E-1,1.2676721E0,-1.3280344E0,6.7865124E0,-1.199508E0,8.8788044E-1,-9.0038204E-1,1.717031E0,-1.7099066E-2,3.2884346E-3,-7.664356E-3,7.159793E-2,-6.8549747E-3,4.866421E-2,1.4633596E-1,1.829911E-2,-7.367879E-3,4.5891076E-2,-1.9688306E-2,4.5976765E-2,1.0069362E-1,4.487525E-1,1.304118E-3,6.702604E-2,3.7821766E-3,9.355919E-2,6.3383006E-2,1.9261305E-1,1.6171086E-1,8.014203E-2,3.1715583E-2,1.8988869E-1,-1.3150524E-1,-3.4310687E-2,8.9082435E-2,1.7881843E-1,8.748283E-2,-1.9548384E-3,-3.0218193E-2,-9.773403E-2],"split_indices":[18,1,73,9,73,0,2,0,73,9,2,83,0,0,5,13,36,4,2,1,0,1,0,86,4,5,1,4,1,3,5,0,0,0,0,0,0,0,0,0,0,0,0,0,0,0,0,0,0,0,0,0,0,0,0,0,0,0,0,0,0,0,0],"split_type":[0,0,0,0,0,0,0,0,0,0,0,0,0,0,0,0,0,0,0,0,0,0,0,0,0,0,0,0,0,0,0,0,0,0,0,0,0,0,0,0,0,0,0,0,0,0,0,0,0,0,0,0,0,0,0,0,0,0,0,0,0,0,0],"sum_hessian":[2.57637E5,2.49829E5,7.808E3,2.41715E5,8.114E3,5.104E3,2.704E3,2.35678E5,6.037E3,4.569E3,3.545E3,3.655E3,1.449E3,2.328E3,3.76E2,1.92549E5,4.3129E4,4.061E3,1.976E3,3.526E3,1.043E3,7.91E2,2.754E3,3.267E3,3.88E2,7.76E2,6.73E2,1.94E2,2.134E3,2.76E2,1E2,1.869E5,5.649E3,4.184E4,1.289E3,3.463E3,5.98E2,4.06E2,1.57E3,3.149E3,3.77E2,2.07E2,8.36E2,7.5E2,4.1E1,1.203E3,1.551E3,3.073E3,1.94E2,3.26E2,6.2E1,7.2E1,7.04E2,6.57E2,1.6E1,1.6E1,1.78E2,1.119E3,1.015E3,2.2E1,2.54E2,9.4E1,6E0],"tree_param":{"num_deleted":"0","num_feature":"90","num_nodes":"63","size_leaf_vector":"0"}},{"base_weights":[-9.281306E-2,-1.11069724E-1,4.9127632E-1,-1.374875E-1,6.566723E-2,2.7365652E-1,9.017968E-1,-1.4321513E-1,7.749118E-2,-6.1752293E-2,2.7029768E-1,1.897063E-1,7.1021193E-1,4.7840887E-1,1.250869E0,-1.4895365E-1,4.7268704E-2,1.7848888E-1,-1.2320858E-1,-9.592254E-2,1.551793E-1,2.1085007E-1,1.1768507E0,7.1962565E-2,4.8628008E-1,1.2717824E-1,9.4859874E-1,1.4040743E0,2.4294987E-1,2.7104383E0,1.0893365E0,-1.5370047E-1,7.587215E-2,-3.3320636E-2,4.0752965E-1,1.2116648E-1,3.3703974E-1,-1.331879E-1,-3.1596657E-3,-1.2093638E-1,2.1148333E-1,7.37232E-1,6.9654875E-2,1.0528211E-1,8.734074E-1,2.2903464E0,3.0347508E-1,1.2444227E-2,5.7064086E-1,1.2171174E0,3.9926052E-1,2.2617696E-2,2.529809E0,1.3255069E0,1.4763504E-1,1.063209E0,2.2388623E0,1.4211855E-2,6.315125E-1,1.4714092E0,4.7562428E0,9.9474233E-1,3.4532332E0],"categories":[],"categories_nodes":[],"categories_segments":[],"categories_sizes":[],"default_left":[1,1,1,1,1,1,1,1,1,1,1,1,1,1,1,1,1,1,1,1,1,1,1,1,1,1,1,1,1,1,1,0,0,0,0,0,0,0,0,0,0,0,0,0,0,0,0,0,0,0,0,0,0,0,0,0,0,0,0,0,0,0,0],"id":16,"left_children":[1,3,5,7,9,11,13,15,17,19,21,23,25,27,29,31,33,35,37,39,41,43,45,47,49,51,53,55,57,59,61,-1,-1,-1,-1,-1,-1,-1,-1,-1,-1,-1,-1,-1,-1,-1,-1,-1,-1,-1,-1,-1,-1,-1,-1,-1,-1,-1,-1,-1,-1,-1,-1],"loss_changes":[2.747383E3,1.1664646E3,6.9738916E2,2.676294E2,8.471061E2,1.8695804E2,3.991814E2,2.3141846E2,1.14366264E2,1.4843008E2,6.716285E2,1.4952612E2,1.1426608E2,2.6643735E2,3.464558E2,2.1933594E2,1.797871E2,3.406836E1,2.2626152E0,1.3303687E2,1.3559839E2,8.183325E2,7.452125E2,9.102301E1,7.691177E1,6.023567E1,1.7610797E2,6.818814E1,8.682586E1,3.6561877E2,2.9530896E2,0E0,0E0,0E0,0E0,0E0,0E0,0E0,0E0,0E0,0E0,0E0,0E0,0E0,0E0,0E0,0E0,0E0,0E0,0E0,0E0,0E0,0E0,0E0,0E0,0E0,0E0,0E0,0E0,0E0,0E0,0E0,0E0],"parents":[2147483647,0,0,1,1,2,2,3,3,4,4,5,5,6,6,7,7,8,8,9,9,10,10,11,11,12,12,13,13,14,14,15,15,16,16,17,17,18,18,19,19,20,20,21,21,22,22,23,23,24,24,25,25,26,26,27,27,28,28,29,29,30,30],"right_children":[2,4,6,8,10,12,14,16,18,20,22,24,26,28,30,32,34,36,38,40,42,44,46,48,50,52,54,56,58,60,62,-1,-1,-1,-1,-1,-1,-1,-1,-1,-1,-1,-1,-1,-1,-1,-1,-1,-1,-1,-1,-1,-1,-1,-1,-1,-1,-1,-1,-1,-1,-1,-1],"split_conditions":[5E-1,-7.910846E-2,5E-1,5E-1,5E-1,1.2676721E0,3.72153E-1,5E-1,5E-1,5E-1,5E-1,5.774442E-1,-2.300638E-2,-6.6192783E-3,-1.3280344E0,5E-1,1.058363E0,1.058363E0,6.73628E-1,5E-1,-1.4916203E0,5E-1,6.2980974E-1,5E-1,-1.3280344E0,5E-1,1.1188931E0,9.5927453E-1,2.888929E-1,3.5309834E0,8.108065E0,-1.5370048E-2,7.5872154E-3,-3.3320636E-3,4.0752966E-2,1.2116648E-2,3.3703975E-2,-1.3318791E-2,-3.1596658E-4,-1.2093638E-2,2.1148333E-2,7.3723204E-2,6.9654877E-3,1.05282115E-2,8.734074E-2,2.2903465E-1,3.034751E-2,1.2444227E-3,5.7064086E-2,1.21711746E-1,3.9926052E-2,2.2617697E-3,2.5298092E-1,1.325507E-1,1.4763504E-2,1.0632091E-1,2.2388624E-1,1.4211856E-3,6.3151255E-2,1.4714092E-1,4.756243E-1,9.947424E-2,3.4532332E-1],"split_indices":[18,1,73,11,73,4,1,34,84,9,36,0,5,2,5,13,0,0,0,36,2,9,2,83,5,54,5,4,0,1,1,0,0,0,0,0,0,0,0,0,0,0,0,0,0,0,0,0,0,0,0,0,0,0,0,0,0,0,0,0,0,0,0],"split_type":[0,0,0,0,0,0,0,0,0,0,0,0,0,0,0,0,0,0,0,0,0,0,0,0,0,0,0,0,0,0,0,0,0,0,0,0,0,0,0,0,0,0,0,0,0,0,0,0,0,0,0,0,0,0,0,0,0,0,0,0,0,0,0],"sum_hessian":[2.57637E5,2.49829E5,7.808E3,2.17342E5,3.2487E4,5.104E3,2.704E3,2.11702E5,5.64E3,2.0021E4,1.2466E4,4.282E3,8.22E2,1.223E3,1.481E3,2.05511E5,6.191E3,3.752E3,1.888E3,1.7297E4,2.724E3,1.17E4,7.66E2,3.066E3,1.216E3,2.39E2,5.83E2,2.47E2,9.76E2,1.46E2,1.335E3,2.01262E5,4.249E3,5.06E3,1.131E3,2.757E3,9.95E2,1.743E3,1.45E2,1.5996E4,1.301E3,3.48E2,2.376E3,1.0093E4,1.607E3,3.36E2,4.3E2,2.74E3,3.26E2,1.28E2,1.088E3,2.3E2,9E0,3.96E2,1.87E2,1.77E2,7E1,6.15E2,3.61E2,9.2E1,5.4E1,1.285E3,5E1],"tree_param":{"num_deleted":"0","num_feature":"90","num_nodes":"63","size_leaf_vector":"0"}},{"base_weights":[-8.3521694E-2,-1.01983294E-1,3.8716844E-1,-1.1035662E-1,3.0675894E-1,1.6676922E-1,6.796929E-1,-1.3202518E-1,-2.8475275E-2,1.9030821E-1,8.2420874E-1,6.7009926E-2,3.780261E-1,7.915176E-1,-1.1194809E-1,-1.3696204E-1,5.7645943E-2,-1.0033488E-1,8.897484E-2,5.4491484E-1,6.738378E-2,1.1171654E0,-1.2580749E-2,-2.2032722E-3,3.1631535E-1,2.5828063E-1,8.526072E-1,1.0984617E0,4.4639167E-1,-1.8502907E-1,-7.2481796E-2,-1.4165959E-1,7.200535E-2,-6.212543E-3,4.2608255E-1,-1.2865138E-1,4.4427358E-2,4.7846038E-2,8.668923E-1,3.6916673E-1,1.3004527E0,1.4306886E-1,-1.9817941E-1,2.3273367E-1,1.5930235E0,-7.206486E-2,1.9606899E0,-6.3353136E-2,3.8569313E-1,8.9938414E-1,2.1296702E-1,1.9896913E-1,1.3360232E0,1.4369106E0,4.572941E-1,9.850613E-1,2.5359242E0,1.7412088E0,3.1926176E-1,-2.0586535E-1,-1.21243365E-1,-5.1730756E-2,-2.4512298E-1],"categories":[],"categories_nodes":[],"categories_segments":[],"categories_sizes":[],"default_left":[1,1,1,1,1,1,1,1,1,1,1,1,1,1,1,1,1,1,1,1,1,1,1,1,1,1,1,1,1,1,1,0,0,0,0,0,0,0,0,0,0,0,0,0,0,0,0,0,0,0,0,0,0,0,0,0,0,0,0,0,0,0,0],"id":17,"left_children":[1,3,5,7,9,11,13,15,17,19,21,23,25,27,29,31,33,35,37,39,41,43,45,47,49,51,53,55,57,59,61,-1,-1,-1,-1,-1,-1,-1,-1,-1,-1,-1,-1,-1,-1,-1,-1,-1,-1,-1,-1,-1,-1,-1,-1,-1,-1,-1,-1,-1,-1,-1,-1],"loss_changes":[2.2388345E3,8.4853125E2,6.2681384E2,4.31031E2,2.997443E2,1.1687677E2,3.6994604E2,1.7988843E2,4.2907748E2,1.771123E2,2.2407483E2,6.5035645E1,1.0087845E2,3.873357E2,1.4806228E0,1.8380078E2,1.1467717E2,1.2929733E2,6.173944E2,1.3841232E2,6.0707756E1,2.845542E2,2.807732E1,7.00216E1,4.9160736E1,9.0632034E1,8.203479E1,3.1325024E2,2.8339636E2,2.1559954E-1,1.198199E0,0E0,0E0,0E0,0E0,0E0,0E0,0E0,0E0,0E0,0E0,0E0,0E0,0E0,0E0,0E0,0E0,0E0,0E0,0E0,0E0,0E0,0E0,0E0,0E0,0E0,0E0,0E0,0E0,0E0,0E0,0E0,0E0],"parents":[2147483647,0,0,1,1,2,2,3,3,4,4,5,5,6,6,7,7,8,8,9,9,10,10,11,11,12,12,13,13,14,14,15,15,16,16,17,17,18,18,19,19,20,20,21,21,22,22,23,23,24,24,25,25,26,26,27,27,28,28,29,29,30,30],"right_children":[2,4,6,8,10,12,14,16,18,20,22,24,26,28,30,32,34,36,38,40,42,44,46,48,50,52,54,56,58,60,62,-1,-1,-1,-1,-1,-1,-1,-1,-1,-1,-1,-1,-1,-1,-1,-1,-1,-1,-1,-1,-1,-1,-1,-1,-1,-1,-1,-1,-1,-1,-1,-1],"split_conditions":[1.5325396E0,5E-1,5E-1,-2.0804033E-1,1.2676721E0,5E-1,5E-1,5E-1,5E-1,-1.0017774E0,1.1188931E0,5E-1,7.377504E-1,8.419527E-1,3.4020514E0,5E-1,1.058363E0,1.2676721E0,5E-1,1.058363E0,5E-1,-2.300638E-2,5E-1,5.980688E0,-1.4916203E0,5E-1,8.659954E-1,8.108065E0,-1.3280344E0,5E-1,1.3789754E0,-1.4165959E-2,7.200535E-3,-6.212543E-4,4.2608257E-2,-1.2865138E-2,4.442736E-3,4.784604E-3,8.668923E-2,3.6916673E-2,1.3004528E-1,1.4306887E-2,-1.981794E-2,2.3273367E-2,1.5930235E-1,-7.206486E-3,1.9606899E-1,-6.335314E-3,3.8569313E-2,8.993842E-2,2.1296702E-2,1.9896913E-2,1.3360232E-1,1.4369106E-1,4.572941E-2,9.850613E-2,2.5359243E-1,1.7412089E-1,3.1926177E-2,-2.0586535E-2,-1.2124336E-2,-5.1730755E-3,-2.4512298E-2],"split_indices":[1,18,73,1,4,18,15,30,73,5,5,9,0,2,1,11,0,4,36,0,67,5,59,1,2,86,0,1,5,84,0,0,0,0,0,0,0,0,0,0,0,0,0,0,0,0,0,0,0,0,0,0,0,0,0,0,0,0,0,0,0,0,0],"split_type":[0,0,0,0,0,0,0,0,0,0,0,0,0,0,0,0,0,0,0,0,0,0,0,0,0,0,0,0,0,0,0,0,0,0,0,0,0,0,0,0,0,0,0,0,0,0,0,0,0,0,0,0,0,0,0,0,0,0,0,0,0,0,0],"sum_hessian":[2.57637E5,2.47914E5,9.723E3,2.42938E5,4.976E3,5.546E3,4.177E3,1.92101E5,5.0837E4,4.063E3,9.13E2,3.768E3,1.778E3,3.66E3,5.17E2,1.87228E5,4.873E3,3.154E4,1.9297E4,1.045E3,3.018E3,6.76E2,2.37E2,2.95E3,8.18E2,1.421E3,3.57E2,1.936E3,1.724E3,1.8E2,3.37E2,1.83112E5,4.116E3,4.154E3,7.19E2,2.638E4,5.16E3,1.8329E4,9.68E2,8.49E2,1.96E2,2.349E3,6.69E2,2.37E2,4.39E2,2.31E2,6E0,2.549E3,4.01E2,1.22E2,6.96E2,1.348E3,7.3E1,1.43E2,2.14E2,1.796E3,1.4E2,1.53E2,1.571E3,1.34E2,4.6E1,3.02E2,3.5E1],"tree_param":{"num_deleted":"0","num_feature":"90","num_nodes":"63","size_leaf_vector":"0"}},{"base_weights":[-7.516319E-2,-9.6163265E-2,2.6678792E-1,-1.0248543E-1,2.4394679E-1,1.5285581E-1,6.659171E-1,-1.20640375E-1,-2.1769328E-2,1.4569096E-1,6.909636E-1,6.782379E-2,4.393888E-1,5.2602196E-1,1.6220571E0,-9.929372E-2,-1.5275387E-1,-3.9797656E-2,6.5043986E-1,4.454962E-1,4.0426355E-2,-2.2172135E-1,8.922608E-1,-7.0053985E-4,3.0199122E-1,1.2067277E0,3.5448003E-1,6.2684673E-1,-3.9739758E-1,1.1452444E0,2.372666E0,-1.07519366E-1,1.7508072E-1,-1.4844975E-1,-2.9932833E-1,-5.938262E-2,5.907045E-1,9.900919E-1,4.3327877E-1,3.1250304E-1,1.0714911E0,-4.607599E-2,2.3132256E-1,-3.4045702E-1,4.575943E-1,1.2849562E0,-2.5235597E-2,-1.629121E-2,1.1962854E0,4.217988E-1,-1.231163E-1,4.134538E0,8.557344E-1,1.3765032E0,2.8982148E-1,2.1278038E0,5.5793184E-1,-2.1653672E-1,-4.251904E-1,5.118237E0,1.0312437E0,3.0077345E0,1.4178252E0],"categories":[],"categories_nodes":[],"categories_segments":[],"categories_sizes":[],"default_left":[1,1,1,1,1,1,1,1,1,1,1,1,1,1,1,1,1,1,1,1,1,1,1,1,1,1,1,1,1,1,1,0,0,0,0,0,0,0,0,0,0,0,0,0,0,0,0,0,0,0,0,0,0,0,0,0,0,0,0,0,0,0,0],"id":18,"left_children":[1,3,5,7,9,11,13,15,17,19,21,23,25,27,29,31,33,35,37,39,41,43,45,47,49,51,53,55,57,59,61,-1,-1,-1,-1,-1,-1,-1,-1,-1,-1,-1,-1,-1,-1,-1,-1,-1,-1,-1,-1,-1,-1,-1,-1,-1,-1,-1,-1,-1,-1,-1,-1],"loss_changes":[1.8501238E3,5.219551E2,6.7777344E2,3.492058E2,1.9447382E2,2.8254944E2,4.4189014E2,1.3334863E2,5.303328E2,1.1463541E2,1.468071E2,1.4353319E2,1.7249048E2,2.6922522E2,1.4831653E2,2.637743E2,4.8962036E1,5.262852E2,8.387781E1,7.825606E1,4.4430542E1,1.1851346E1,2.3566638E2,1.2917789E2,1.0318742E2,2.6775943E2,1.5760443E2,2.6826965E2,1.3405228E0,1.1248218E2,9.457703E1,0E0,0E0,0E0,0E0,0E0,0E0,0E0,0E0,0E0,0E0,0E0,0E0,0E0,0E0,0E0,0E0,0E0,0E0,0E0,0E0,0E0,0E0,0E0,0E0,0E0,0E0,0E0,0E0,0E0,0E0,0E0,0E0],"parents":[2147483647,0,0,1,1,2,2,3,3,4,4,5,5,6,6,7,7,8,8,9,9,10,10,11,11,12,12,13,13,14,14,15,15,16,16,17,17,18,18,19,19,20,20,21,21,22,22,23,23,24,24,25,25,26,26,27,27,28,28,29,29,30,30],"right_children":[2,4,6,8,10,12,14,16,18,20,22,24,26,28,30,32,34,36,38,40,42,44,46,48,50,52,54,56,58,60,62,-1,-1,-1,-1,-1,-1,-1,-1,-1,-1,-1,-1,-1,-1,-1,-1,-1,-1,-1,-1,-1,-1,-1,-1,-1,-1,-1,-1,-1,-1,-1,-1],"split_conditions":[7.5894856E-1,5E-1,1.058363E0,1.058363E0,1.2676721E0,5E-1,4.820302E0,5E-1,5E-1,-1.0017774E0,-8.3864886E-1,5E-1,-1.3280344E0,5E-1,-5.0955534E-1,5E-1,5E-1,5E-1,8.419527E-1,1.058363E0,5.774442E-1,1.058363E0,1.1188931E0,1.2104952E1,8.419527E-1,-1.5065371E0,-9.0038204E-1,-1.5079055E0,1.1224854E0,-1.4367867E0,1.314853E0,-1.0751937E-2,1.7508073E-2,-1.4844975E-2,-2.9932832E-2,-5.938262E-3,5.907045E-2,9.900919E-2,4.332788E-2,3.1250305E-2,1.0714912E-1,-4.6075988E-3,2.3132255E-2,-3.4045704E-2,4.5759432E-2,1.2849562E-1,-2.5235598E-3,-1.629121E-3,1.1962854E-1,4.217988E-2,-1.231163E-2,4.1345382E-1,8.557344E-2,1.3765033E-1,2.8982148E-2,2.1278039E-1,5.5793185E-2,-2.1653673E-2,-4.251904E-2,5.118237E-1,1.0312437E-1,3.0077347E-1,1.4178252E-1],"split_indices":[1,18,0,0,4,18,1,84,14,5,5,9,5,16,3,36,36,36,2,0,0,0,5,1,2,0,3,4,0,5,0,0,0,0,0,0,0,0,0,0,0,0,0,0,0,0,0,0,0,0,0,0,0,0,0,0,0,0,0,0,0,0,0],"split_type":[0,0,0,0,0,0,0,0,0,0,0,0,0,0,0,0,0,0,0,0,0,0,0,0,0,0,0,0,0,0,0,0,0,0,0,0,0,0,0,0,0,0,0,0,0,0,0,0,0,0,0,0,0,0,0,0,0,0,0,0,0,0,0],"sum_hessian":[2.57637E5,2.42731E5,1.4906E4,2.38302E5,4.429E3,1.1597E4,3.309E3,1.94544E5,4.3758E4,3.632E3,7.97E2,8.944E3,2.653E3,2.888E3,4.21E2,1.16865E5,7.7679E4,4.2616E4,1.142E3,9.43E2,2.689E3,1.44E2,6.53E2,6.92E3,2.024E3,2.63E2,2.39E3,2.604E3,2.84E2,2.59E2,1.62E2,1.13464E5,3.401E3,7.5465E4,2.214E3,4.1333E4,1.283E3,4.44E2,6.98E2,7.79E2,1.64E2,1.851E3,8.38E2,1.23E2,2.1E1,4.57E2,1.96E2,6.832E3,8.8E1,1.579E3,4.45E2,2.7E1,2.36E2,1.41E2,2.249E3,1.13E2,2.491E3,3.9E1,2.45E2,6E0,2.53E2,9.6E1,6.6E1],"tree_param":{"num_deleted":"0","num_feature":"90","num_nodes":"63","size_leaf_vector":"0"}},{"base_weights":[-6.763706E-2,-8.1219845E-2,3.669198E-1,-9.130315E-2,2.312993E-1,1.8644138E-1,7.0739126E-1,-9.86786E-2,1.3000688E-1,1.1706627E-1,6.596019E-1,1.2428056E-1,6.683744E-1,1.0571955E0,3.5394558E-1,-1.0601391E-1,1.14009425E-1,3.1008607E-1,-2.972609E-1,5.6706214E-1,7.342259E-2,2.2731705E-1,1.1065856E0,1.956161E-2,3.9665097E-1,5.281883E-1,1.3920215E0,1.2887719E0,4.2301568E-1,-4.0790547E-2,8.7130266E-1,-1.1271023E-1,8.14528E-2,3.992928E-2,2.997909E-1,5.835506E-1,-2.624238E-1,-5.7012963E-1,-1.0110834E-2,8.809384E-1,2.1189752E-1,4.912517E-1,2.9745804E-2,6.135964E-1,-1.1433484E-1,2.2354608E0,7.8177786E-1,1.3342723E-1,-3.4751108E-1,2.8274047E-1,1.0149909E0,1.2363266E0,4.431054E-1,2.1363628E-1,1.8637047E0,8.676887E-1,2.849253E0,1.9946747E-1,8.892609E-1,-3.0756748E-1,1.1628779E0,5.936726E-1,2.3092544E0],"categories":[],"categories_nodes":[],"categories_segments":[],"categories_sizes":[],"default_left":[1,1,1,1,1,1,1,1,1,1,1,1,1,1,1,1,1,1,1,1,1,1,1,1,1,1,1,1,1,1,1,0,0,0,0,0,0,0,0,0,0,0,0,0,0,0,0,0,0,0,0,0,0,0,0,0,0,0,0,0,0,0,0],"id":19,"left_children":[1,3,5,7,9,11,13,15,17,19,21,23,25,27,29,31,33,35,37,39,41,43,45,47,49,51,53,55,57,59,61,-1,-1,-1,-1,-1,-1,-1,-1,-1,-1,-1,-1,-1,-1,-1,-1,-1,-1,-1,-1,-1,-1,-1,-1,-1,-1,-1,-1,-1,-1,-1,-1],"loss_changes":[1.5207358E3,7.8729175E2,4.7971362E2,3.9505566E2,3.8198834E2,1.5284918E2,3.3406348E2,3.6542188E2,6.007017E2,1.21055374E2,3.1740912E2,1.289988E2,5.840738E1,1.9903894E2,2.7511926E2,2.8422876E2,1.07461075E2,8.599868E2,1.813844E2,6.056871E1,1.02583694E2,1.1053162E2,2.945197E2,1.3663884E2,8.81799E1,2.8974884E1,5.1849365E1,6.513347E2,3.7865936E1,2.4600755E2,2.3137354E2,0E0,0E0,0E0,0E0,0E0,0E0,0E0,0E0,0E0,0E0,0E0,0E0,0E0,0E0,0E0,0E0,0E0,0E0,0E0,0E0,0E0,0E0,0E0,0E0,0E0,0E0,0E0,0E0,0E0,0E0,0E0,0E0],"parents":[2147483647,0,0,1,1,2,2,3,3,4,4,5,5,6,6,7,7,8,8,9,9,10,10,11,11,12,12,13,13,14,14,15,15,16,16,17,17,18,18,19,19,20,20,21,21,22,22,23,23,24,24,25,25,26,26,27,27,28,28,29,29,30,30],"right_children":[2,4,6,8,10,12,14,16,18,20,22,24,26,28,30,32,34,36,38,40,42,44,46,48,50,52,54,56,58,60,62,-1,-1,-1,-1,-1,-1,-1,-1,-1,-1,-1,-1,-1,-1,-1,-1,-1,-1,-1,-1,-1,-1,-1,-1,-1,-1,-1,-1,-1,-1,-1,-1],"split_conditions":[5E-1,5E-1,5E-1,5E-1,9.621792E-1,5E-1,8.419527E-1,5E-1,1.0537517E0,-9.0038204E-1,5E-1,5.774442E-1,1.2676721E0,9.5576465E-1,3.2095417E-1,5E-1,7.377504E-1,5E-1,1.5618666E0,5E-1,-1.5065371E0,8.419527E-1,-1.1105297E0,1.2858668E-1,5E-1,-1.3280344E0,-2.300638E-2,3.032506E-1,2.5639944E0,5E-1,1.2676721E0,-1.1271023E-2,8.14528E-3,3.9929277E-3,2.997909E-2,5.835506E-2,-2.6242381E-2,-5.7012964E-2,-1.0110834E-3,8.809384E-2,2.1189753E-2,4.9125172E-2,2.9745805E-3,6.135964E-2,-1.1433484E-2,2.2354607E-1,7.817779E-2,1.3342723E-2,-3.475111E-2,2.8274048E-2,1.01499096E-1,1.2363266E-1,4.431054E-2,2.1363629E-2,1.8637048E-1,8.676887E-2,2.849253E-1,1.9946747E-2,8.892609E-2,-3.0756747E-2,1.1628779E-1,5.9367258E-2,2.3092544E-1],"split_indices":[18,9,73,36,0,83,2,13,3,3,88,0,4,5,0,14,0,84,3,80,0,2,5,0,84,5,5,5,1,79,4,0,0,0,0,0,0,0,0,0,0,0,0,0,0,0,0,0,0,0,0,0,0,0,0,0,0,0,0,0,0,0,0],"split_type":[0,0,0,0,0,0,0,0,0,0,0,0,0,0,0,0,0,0,0,0,0,0,0,0,0,0,0,0,0,0,0,0,0,0,0,0,0,0,0,0,0,0,0,0,0,0,0,0,0,0,0,0,0,0,0,0,0,0,0,0,0,0,0],"sum_hessian":[2.57637E5,2.49829E5,7.808E3,2.42021E5,7.808E3,5.104E3,2.704E3,2.34216E5,7.805E3,6.165E3,1.643E3,4.522E3,5.82E2,1.358E3,1.346E3,2.26408E5,7.808E3,5.491E3,2.314E3,5.44E2,5.621E3,8.36E2,8.07E2,3.267E3,1.255E3,4.89E2,9.3E1,9.94E2,3.64E2,7.64E2,5.82E2,2.186E5,7.808E3,5.583E3,2.225E3,3.716E3,1.775E3,1.186E3,1.128E3,2.88E2,2.56E2,5.31E2,5.09E3,3.92E2,4.44E2,1.79E2,6.28E2,2.494E3,7.73E2,1.061E3,1.94E2,5.1E1,4.38E2,2.7E1,6.6E1,7.84E2,2.1E2,2.47E2,1.17E2,6.26E2,1.38E2,4.89E2,9.3E1],"tree_param":{"num_deleted":"0","num_feature":"90","num_nodes":"63","size_leaf_vector":"0"}},{"base_weights":[-6.086614E-2,-7.50428E-2,3.005765E-1,-8.097263E-2,2.1442099E-1,1.21540666E-1,5.3820485E-1,-8.664678E-2,1.291578E-1,1.2305471E-1,6.2043643E-1,8.0561124E-2,4.506474E-1,1.3963702E0,4.581512E-1,-9.2698246E-2,9.13094E-2,6.603878E-2,5.13473E-1,4.10896E-1,2.3284903E-2,8.55932E-1,-5.204643E-2,4.9919944E-2,4.9706092E-1,2.2700888E-1,8.829278E-1,1.1456497E0,4.082677E0,7.1367407E-1,1.735759E-1,-9.844198E-2,8.7376714E-2,1.8496278E-1,-1.05283424E-1,-4.3541785E-2,2.8928703E-1,6.8472743E-1,5.7257783E-2,2.7253824E-1,1.0057853E0,4.3431606E-2,-6.988407E-1,1.41714E-1,1.2403136E0,-1.0720065E-1,1.7833574E0,3.0536065E-1,-5.956615E-4,2.9078308E-1,8.893273E-1,8.18886E-1,1.0551028E-1,2.6350613E0,7.4362046E-1,8.9614046E-1,3.7780476E0,1.9421659E0,6.390249E0,6.185108E-1,2.0994442E0,-7.9939984E-2,3.8884825E-1],"categories":[],"categories_nodes":[],"categories_segments":[],"categories_sizes":[],"default_left":[1,1,1,1,1,1,1,1,1,1,1,1,1,1,1,1,1,1,1,1,1,1,1,1,1,1,1,1,1,1,1,0,0,0,0,0,0,0,0,0,0,0,0,0,0,0,0,0,0,0,0,0,0,0,0,0,0,0,0,0,0,0,0],"id":20,"left_children":[1,3,5,7,9,11,13,15,17,19,21,23,25,27,29,31,33,35,37,39,41,43,45,47,49,51,53,55,57,59,61,-1,-1,-1,-1,-1,-1,-1,-1,-1,-1,-1,-1,-1,-1,-1,-1,-1,-1,-1,-1,-1,-1,-1,-1,-1,-1,-1,-1,-1,-1,-1,-1],"loss_changes":[1.3201725E3,4.2555603E2,4.1363232E2,2.8967017E2,1.8455103E2,7.4774124E1,2.8638574E2,2.5475037E2,1.5492361E2,1.16699844E2,1.4479175E2,6.2943115E1,5.915773E1,2.350929E2,2.7786755E2,2.3662915E2,1.4326158E2,1.3426923E2,7.035492E1,8.581958E1,4.3952118E1,1.8568259E2,2.4283983E1,5.9318687E1,2.709095E1,2.9109964E1,4.905429E1,2.113905E2,1.3577057E2,2.6429675E2,9.881176E1,0E0,0E0,0E0,0E0,0E0,0E0,0E0,0E0,0E0,0E0,0E0,0E0,0E0,0E0,0E0,0E0,0E0,0E0,0E0,0E0,0E0,0E0,0E0,0E0,0E0,0E0,0E0,0E0,0E0,0E0,0E0,0E0],"parents":[2147483647,0,0,1,1,2,2,3,3,4,4,5,5,6,6,7,7,8,8,9,9,10,10,11,11,12,12,13,13,14,14,15,15,16,16,17,17,18,18,19,19,20,20,21,21,22,22,23,23,24,24,25,25,26,26,27,27,28,28,29,29,30,30],"right_children":[2,4,6,8,10,12,14,16,18,20,22,24,26,28,30,32,34,36,38,40,42,44,46,48,50,52,54,56,58,60,62,-1,-1,-1,-1,-1,-1,-1,-1,-1,-1,-1,-1,-1,-1,-1,-1,-1,-1,-1,-1,-1,-1,-1,-1,-1,-1,-1,-1,-1,-1,-1,-1],"split_conditions":[1.5325396E0,5E-1,5E-1,5E-1,1.2676721E0,5.9162226E0,-1.3280344E0,5E-1,1.2676721E0,-1.0017774E0,1.1188931E0,5E-1,-4.8204082E-1,5E-1,8.419527E-1,5E-1,5E-1,5E-1,7.8242236E-1,1.058363E0,5E-1,-2.300638E-2,5E-1,-1.4916203E0,5E-1,-1.2794774E0,-9.4740117E-1,5E-1,2.5683168E-1,8.108065E0,3.2095417E-1,-9.844198E-3,8.737671E-3,1.8496279E-2,-1.0528343E-2,-4.3541784E-3,2.8928703E-2,6.847274E-2,5.725778E-3,2.7253825E-2,1.0057854E-1,4.343161E-3,-6.988407E-2,1.4171401E-2,1.24031365E-1,-1.0720066E-2,1.7833574E-1,3.0536065E-2,-5.956615E-5,2.9078308E-2,8.893273E-2,8.18886E-2,1.0551028E-2,2.6350614E-1,7.436205E-2,8.961405E-2,3.7780476E-1,1.942166E-1,6.390249E-1,6.185108E-2,2.0994441E-1,-7.993999E-3,3.8884826E-2],"split_indices":[1,18,73,9,4,1,5,11,4,5,5,86,3,81,2,13,84,73,3,0,59,5,59,2,18,2,5,79,0,1,0,0,0,0,0,0,0,0,0,0,0,0,0,0,0,0,0,0,0,0,0,0,0,0,0,0,0,0,0,0,0,0,0],"split_type":[0,0,0,0,0,0,0,0,0,0,0,0,0,0,0,0,0,0,0,0,0,0,0,0,0,0,0,0,0,0,0,0,0,0,0,0,0,0,0,0,0,0,0,0,0,0,0,0,0,0,0,0,0,0,0,0,0,0,0,0,0,0,0],"sum_hessian":[2.57637E5,2.47914E5,9.723E3,2.42938E5,4.976E3,5.546E3,4.177E3,2.36551E5,6.387E3,4.063E3,9.13E2,4.933E3,6.13E2,3.55E2,3.822E3,2.28772E5,7.779E3,5.487E3,9E2,1.045E3,3.018E3,6.76E2,2.37E2,4.596E3,3.37E2,4.05E2,2.08E2,3.26E2,2.9E1,2.013E3,1.809E3,2.21701E5,7.071E3,5.269E3,2.51E3,3.681E3,1.806E3,6.54E2,2.46E2,8.49E2,1.96E2,2.937E3,8.1E1,2.37E2,4.39E2,2.31E2,6E0,7.58E2,3.838E3,2.22E2,1.15E2,6.8E1,3.37E2,1.4E1,1.94E2,2.99E2,2.7E1,1.6E1,1.3E1,1.885E3,1.28E2,8.31E2,9.78E2],"tree_param":{"num_deleted":"0","num_feature":"90","num_nodes":"63","size_leaf_vector":"0"}},{"base_weights":[-5.4769218E-2,-7.380447E-2,1.6741721E-1,-8.9189194E-2,-5.1207803E-3,3.9571505E-2,3.7734818E-1,-1.8501638E-2,-9.626426E-2,-2.0033848E-2,5.8245885E-1,-1.2924639E-2,2.591864E-1,8.1386805E-1,2.4738109E-1,-4.005535E-2,7.1295273E-1,-9.921495E-2,7.2331235E-2,-3.489666E-2,4.740357E-1,8.838377E-1,3.855768E-1,1.8791078E-1,-5.1788434E-2,2.9602796E-1,-5.704703E-1,6.2723726E-1,1.8014376E0,-3.3049054E-2,5.033148E-1,-1.0392914E-1,8.951654E-2,-1.3973458E-1,2.409063E0,-1.02701165E-1,1.1337166E-2,2.7064856E-3,4.0327486E-1,-4.7653094E-2,4.03404E-1,1.2978315E0,-5.181566E-2,1.0425814E0,6.520104E-1,5.800104E-1,2.404085E-1,1.2814082E-1,9.8667437E-1,-1.4981323E-1,1.1613814E-2,1.955131E-1,6.3302565E-1,-1.12259336E-1,-6.074852E-1,5.2312565E-1,2.7577152E0,2.2857103E0,8.787504E-1,-1.187263E-1,2.528985E-1,3.4376845E-1,1.1542757E0],"categories":[],"categories_nodes":[],"categories_segments":[],"categories_sizes":[],"default_left":[1,1,1,1,1,1,1,1,1,1,1,1,1,1,1,1,1,1,1,1,1,1,1,1,1,1,1,1,1,1,1,0,0,0,0,0,0,0,0,0,0,0,0,0,0,0,0,0,0,0,0,0,0,0,0,0,0,0,0,0,0,0,0],"id":21,"left_children":[1,3,5,7,9,11,13,15,17,19,21,23,25,27,29,31,33,35,37,39,41,43,45,47,49,51,53,55,57,59,61,-1,-1,-1,-1,-1,-1,-1,-1,-1,-1,-1,-1,-1,-1,-1,-1,-1,-1,-1,-1,-1,-1,-1,-1,-1,-1,-1,-1,-1,-1,-1,-1],"loss_changes":[1.0896599E3,2.5075806E2,5.456443E2,9.6961426E1,3.8056323E2,1.4569449E2,4.3636072E2,2.7814877E2,8.768164E1,3.1104047E2,6.3445526E1,7.962305E1,7.468846E1,3.241787E2,4.256935E2,1.4183937E2,7.306938E2,6.67572E1,6.9861855E1,2.2992183E2,5.3592847E2,1.4923889E1,1.8263649E1,7.883893E1,5.312128E1,7.897035E1,1.6957092E0,3.281632E2,1.2310443E2,6.938725E1,3.216682E2,0E0,0E0,0E0,0E0,0E0,0E0,0E0,0E0,0E0,0E0,0E0,0E0,0E0,0E0,0E0,0E0,0E0,0E0,0E0,0E0,0E0,0E0,0E0,0E0,0E0,0E0,0E0,0E0,0E0,0E0,0E0,0E0],"parents":[2147483647,0,0,1,1,2,2,3,3,4,4,5,5,6,6,7,7,8,8,9,9,10,10,11,11,12,12,13,13,14,14,15,15,16,16,17,17,18,18,19,19,20,20,21,21,22,22,23,23,24,24,25,25,26,26,27,27,28,28,29,29,30,30],"right_children":[2,4,6,8,10,12,14,16,18,20,22,24,26,28,30,32,34,36,38,40,42,44,46,48,50,52,54,56,58,60,62,-1,-1,-1,-1,-1,-1,-1,-1,-1,-1,-1,-1,-1,-1,-1,-1,-1,-1,-1,-1,-1,-1,-1,-1,-1,-1,-1,-1,-1,-1,-1,-1],"split_conditions":[3.72153E-1,1.058363E0,5E-1,-1.5065371E0,5E-1,5E-1,-6.6192783E-3,5E-1,5E-1,5E-1,8.419527E-1,-1.2794774E0,5E-1,5E-1,2.888929E-1,-1.5706596E0,-1.5706596E0,5E-1,5E-1,5E-1,8.419527E-1,9.5594466E-1,1.314853E0,5E-1,3.4167245E-4,-4.9670184E-1,-1.199508E0,8.140297E0,5E-1,5E-1,5E-1,-1.03929145E-2,8.951655E-3,-1.3973459E-2,2.4090631E-1,-1.0270117E-2,1.1337165E-3,2.7064857E-4,4.0327486E-2,-4.7653094E-3,4.03404E-2,1.2978315E-1,-5.181566E-3,1.0425814E-1,6.520104E-2,5.800104E-2,2.404085E-2,1.2814082E-2,9.8667435E-2,-1.4981324E-2,1.1613815E-3,1.955131E-2,6.330257E-2,-1.1225934E-2,-6.0748518E-2,5.2312564E-2,2.7577153E-1,2.2857104E-1,8.787504E-2,-1.187263E-2,2.5289852E-2,3.4376845E-2,1.1542757E-1],"split_indices":[1,0,73,0,14,18,2,36,18,36,2,2,54,9,0,0,0,11,83,34,2,3,0,36,0,3,4,1,41,79,18,0,0,0,0,0,0,0,0,0,0,0,0,0,0,0,0,0,0,0,0,0,0,0,0,0,0,0,0,0,0,0,0],"split_type":[0,0,0,0,0,0,0,0,0,0,0,0,0,0,0,0,0,0,0,0,0,0,0,0,0,0,0,0,0,0,0,0,0,0,0,0,0,0,0,0,0,0,0,0,0,0,0,0,0,0,0,0,0,0,0,0,0,0,0,0,0,0,0],"sum_hessian":[2.57637E5,2.37307E5,2.033E4,1.93879E5,4.3428E4,1.2636E4,7.694E3,1.764E4,1.76239E5,4.2354E4,1.074E3,1.0199E4,2.437E3,1.764E3,5.93E3,1.7136E4,5.04E2,1.73208E5,3.031E3,4.1118E4,1.236E3,4.23E2,6.51E2,1.653E3,8.546E3,2.334E3,1.03E2,1.485E3,2.79E2,2.83E3,3.1E3,1.1478E4,5.658E3,3.36E2,1.68E2,1.67913E5,5.295E3,2.505E3,5.26E2,3.9956E4,1.162E3,4.81E2,7.55E2,2.49E2,1.74E2,2.77E2,3.74E2,1.539E3,1.14E2,3.356E3,5.19E3,1.799E3,5.35E2,8E0,9.5E1,1.417E3,6.8E1,1.82E2,9.7E1,2.178E3,6.52E2,2.491E3,6.09E2],"tree_param":{"num_deleted":"0","num_feature":"90","num_nodes":"63","size_leaf_vector":"0"}},{"base_weights":[-4.9286142E-2,-6.0554285E-2,2.6084092E-1,-7.5752564E-2,2.7968628E-2,1.01423725E-1,4.7513616E-1,-8.049404E-2,9.339411E-2,-1.8177425E-2,2.5019306E-1,1.4969458E-1,-1.4332765E-1,1.3339852E0,3.969687E-1,-8.560957E-2,8.920752E-2,3.2619223E-2,4.0707168E-1,2.6260626E-2,-1.3287334E-1,1.8105897E-1,9.338849E-1,-5.2304067E-2,2.2801092E-1,-1.6962218E-1,-1.00852735E-1,1.0250008E0,3.2558873E0,4.8860744E-1,-1.8410692E-1,-8.9903235E-2,7.9189405E-2,-1.2186292E-2,2.8168648E-1,9.228331E-2,-5.0602507E-2,4.9358544E-1,2.4133232E-1,5.749184E-3,5.392115E-1,-8.952169E-2,-2.678826E-1,1.18067294E-1,7.3160255E-1,5.839588E-1,1.8867093E0,-9.702702E-2,2.8207648E-1,7.5226605E-1,1.8285985E-1,-1.2413597E-1,-1.8952501E-1,-8.8997E-2,-1.7562293E-1,3.3829218E-1,2.4324317E0,1.5266362E0,5.4508686E0,7.367625E-1,2.1066529E-1,-1.679724E-1,-3.7361732E-1],"categories":[],"categories_nodes":[],"categories_segments":[],"categories_sizes":[],"default_left":[1,1,1,1,1,1,1,1,1,1,1,1,1,1,1,1,1,1,1,1,1,1,1,1,1,1,1,1,1,1,1,0,0,0,0,0,0,0,0,0,0,0,0,0,0,0,0,0,0,0,0,0,0,0,0,0,0,0,0,0,0,0,0],"id":22,"left_children":[1,3,5,7,9,11,13,15,17,19,21,23,25,27,29,31,33,35,37,39,41,43,45,47,49,51,53,55,57,59,61,-1,-1,-1,-1,-1,-1,-1,-1,-1,-1,-1,-1,-1,-1,-1,-1,-1,-1,-1,-1,-1,-1,-1,-1,-1,-1,-1,-1,-1,-1,-1,-1],"loss_changes":[9.003463E2,3.3447565E2,3.0854022E2,1.701753E2,3.7357596E2,6.1231644E1,2.5813806E2,1.7917993E2,1.102894E2,1.5375546E2,2.9590778E2,6.848E1,9.366913E-1,1.8728467E2,1.8821881E2,1.4177612E2,1.1788113E2,2.407668E1,1.3344955E1,2.2876288E2,4.928061E1,1.972409E2,1.9061365E2,1.8122295E1,7.3691284E1,4.5266247E-1,2.7601457E-1,2.6786273E2,1.586882E2,2.1034967E2,1.4110355E0,0E0,0E0,0E0,0E0,0E0,0E0,0E0,0E0,0E0,0E0,0E0,0E0,0E0,0E0,0E0,0E0,0E0,0E0,0E0,0E0,0E0,0E0,0E0,0E0,0E0,0E0,0E0,0E0,0E0,0E0,0E0,0E0],"parents":[2147483647,0,0,1,1,2,2,3,3,4,4,5,5,6,6,7,7,8,8,9,9,10,10,11,11,12,12,13,13,14,14,15,15,16,16,17,17,18,18,19,19,20,20,21,21,22,22,23,23,24,24,25,25,26,26,27,27,28,28,29,29,30,30],"right_children":[2,4,6,8,10,12,14,16,18,20,22,24,26,28,30,32,34,36,38,40,42,44,46,48,50,52,54,56,58,60,62,-1,-1,-1,-1,-1,-1,-1,-1,-1,-1,-1,-1,-1,-1,-1,-1,-1,-1,-1,-1,-1,-1,-1,-1,-1,-1,-1,-1,-1,-1,-1,-1],"split_conditions":[1.6614715E0,-1.4357439E-1,5E-1,5E-1,1.2676721E0,5E-1,-1.3280344E0,5E-1,1.058363E0,5E-1,5E-1,-2.2408709E-1,3.015256E0,5E-1,5E-1,5E-1,5E-1,5E-1,1.3789754E0,5E-1,5E-1,5E-1,1.058363E0,5E-1,-1.5996458E-1,-3.8439333E-1,5E-1,5E-1,2.5683168E-1,8.419527E-1,1.3789754E0,-8.990324E-3,7.918941E-3,-1.2186292E-3,2.8168648E-2,9.228331E-3,-5.060251E-3,4.9358543E-2,2.4133233E-2,5.749184E-4,5.3921152E-2,-8.95217E-3,-2.6788259E-2,1.1806729E-2,7.316025E-2,5.839588E-2,1.8867093E-1,-9.702702E-3,2.8207649E-2,7.5226605E-2,1.8285986E-2,-1.2413598E-2,-1.8952502E-2,-8.8997E-3,-1.7562293E-2,3.382922E-2,2.4324317E-1,1.5266363E-1,5.4508686E-1,7.367625E-2,2.106653E-2,-1.679724E-2,-3.7361734E-2],"split_indices":[1,1,73,30,4,15,5,34,0,84,17,0,1,9,15,11,73,84,0,36,67,18,0,46,0,0,39,18,0,2,0,0,0,0,0,0,0,0,0,0,0,0,0,0,0,0,0,0,0,0,0,0,0,0,0,0,0,0,0,0,0,0,0],"split_type":[0,0,0,0,0,0,0,0,0,0,0,0,0,0,0,0,0,0,0,0,0,0,0,0,0,0,0,0,0,0,0,0,0,0,0,0,0,0,0,0,0,0,0,0,0,0,0,0,0,0,0,0,0,0,0,0,0,0,0,0,0,0,0],"sum_hessian":[2.57637E5,2.48605E5,9.032E3,2.12177E5,3.6428E4,5.18E3,3.852E3,2.06392E5,5.785E3,3.0165E4,6.263E3,4.327E3,8.53E2,3.2E2,3.532E3,2.00353E5,6.039E3,4.847E3,9.38E2,2.1742E4,8.423E3,5.689E3,5.74E2,1.209E3,3.118E3,5.25E2,3.28E2,2.77E2,4.3E1,3.051E3,4.81E2,1.95266E5,5.087E3,3.956E3,2.083E3,2.823E3,2.024E3,6.15E2,3.23E2,2.0907E4,8.35E2,6.377E3,2.046E3,5.106E3,5.83E2,4.21E2,1.53E2,1.067E3,1.42E2,2.46E2,2.872E3,1.62E2,3.63E2,2.85E2,4.3E1,1.87E2,9E1,2.5E1,1.8E1,1.611E3,1.44E3,4.45E2,3.6E1],"tree_param":{"num_deleted":"0","num_feature":"90","num_nodes":"63","size_leaf_vector":"0"}},{"base_weights":[-4.4351615E-2,-5.418391E-2,2.7021456E-1,-6.1998364E-2,1.880139E-1,1.3269912E-1,5.434586E-1,-6.7688674E-2,1.08745806E-1,9.6389845E-2,5.3154546E-1,2.6454017E-1,-3.110723E-2,4.3697304E-1,1.0986785E0,-7.344621E-2,9.9250294E-2,2.6448858E-1,-2.607782E-1,-7.083282E-1,1.2264966E-1,1.585761E-1,9.1724324E-1,5.7908046E-1,-8.940688E-3,1.4109081E-1,-5.473508E-1,9.942372E-1,2.8332603E-1,1.3076406E0,-8.1311417E-1,-7.888047E-2,7.86868E-2,1.4985074E-1,-9.4004095E-2,3.1774353E-2,7.5382787E-1,2.4087848E-1,-3.95253E-1,-4.6896386E-1,-8.890282E-1,9.8401576E-1,6.262207E-2,4.862602E-1,-1.3117318E-1,1.8895454E0,6.375427E-1,7.695787E-1,-5.424556E-1,-2.2848177E-1,6.4180434E-1,8.4639207E-4,4.191726E-1,-6.378005E-1,-3.6549988E-1,1.2483027E0,1.7152946E-1,1.5131527E0,2.033414E-1,3.7627932E-1,1.7483013E0,-5.3247465E-3,-1.4187343E0],"categories":[],"categories_nodes":[],"categories_segments":[],"categories_sizes":[],"default_left":[1,1,1,1,1,1,1,1,1,1,1,1,1,1,1,1,1,1,1,1,1,1,1,1,1,1,1,1,1,1,1,0,0,0,0,0,0,0,0,0,0,0,0,0,0,0,0,0,0,0,0,0,0,0,0,0,0,0,0,0,0,0,0],"id":23,"left_children":[1,3,5,7,9,11,13,15,17,19,21,23,25,27,29,31,33,35,37,39,41,43,45,47,49,51,53,55,57,59,61,-1,-1,-1,-1,-1,-1,-1,-1,-1,-1,-1,-1,-1,-1,-1,-1,-1,-1,-1,-1,-1,-1,-1,-1,-1,-1,-1,-1,-1,-1,-1,-1],"loss_changes":[7.9686536E2,4.7285052E2,2.9335315E2,2.3515271E2,2.4574295E2,1.1222314E2,1.540672E2,2.2512671E2,4.4930963E2,1.3038524E2,2.3634967E2,2.4765894E2,2.0613844E2,1.8765857E2,1.6884998E2,1.871853E2,7.6376396E1,6.253843E2,1.5626555E2,8.017433E0,3.08725E2,7.953377E1,2.1853369E2,2.864956E2,2.20302E2,6.781964E1,9.306931E0,9.886215E1,1.6908069E2,1.5488916E2,2.0539417E1,0E0,0E0,0E0,0E0,0E0,0E0,0E0,0E0,0E0,0E0,0E0,0E0,0E0,0E0,0E0,0E0,0E0,0E0,0E0,0E0,0E0,0E0,0E0,0E0,0E0,0E0,0E0,0E0,0E0,0E0,0E0,0E0],"parents":[2147483647,0,0,1,1,2,2,3,3,4,4,5,5,6,6,7,7,8,8,9,9,10,10,11,11,12,12,13,13,14,14,15,15,16,16,17,17,18,18,19,19,20,20,21,21,22,22,23,23,24,24,25,25,26,26,27,27,28,28,29,29,30,30],"right_children":[2,4,6,8,10,12,14,16,18,20,22,24,26,28,30,32,34,36,38,40,42,44,46,48,50,52,54,56,58,60,62,-1,-1,-1,-1,-1,-1,-1,-1,-1,-1,-1,-1,-1,-1,-1,-1,-1,-1,-1,-1,-1,-1,-1,-1,-1,-1,-1,-1,-1,-1,-1,-1],"split_conditions":[5E-1,5E-1,5.774442E-1,5E-1,9.621792E-1,5E-1,1.2676721E0,5E-1,1.0537517E0,-1.6347821E0,5E-1,-6.6192783E-3,5E-1,-1.1105297E0,1.4995263E0,5E-1,5E-1,5E-1,-1.1105297E0,-7.910846E-2,-1.5065371E0,8.419527E-1,-1.1105297E0,5E-1,3.4167245E-4,-6.7294455E-1,4.1713792E-1,1.4951891E0,-9.0038204E-1,-2.300638E-2,1.058363E0,-7.888047E-3,7.86868E-3,1.4985074E-2,-9.40041E-3,3.1774354E-3,7.538279E-2,2.4087848E-2,-3.95253E-2,-4.6896387E-2,-8.890282E-2,9.840158E-2,6.262207E-3,4.862602E-2,-1.3117318E-2,1.8895455E-1,6.3754275E-2,7.6957874E-2,-5.424556E-2,-2.2848178E-2,6.4180434E-2,8.463921E-5,4.191726E-2,-6.3780054E-2,-3.654999E-2,1.2483027E-1,1.7152946E-2,1.5131527E-1,2.033414E-2,3.762793E-2,1.7483012E-1,-5.3247466E-4,-1.4187343E-1],"split_indices":[18,9,0,36,0,84,4,13,3,0,88,2,67,5,5,14,67,57,5,1,0,2,5,59,0,0,0,3,3,5,0,0,0,0,0,0,0,0,0,0,0,0,0,0,0,0,0,0,0,0,0,0,0,0,0,0,0,0,0,0,0,0,0],"split_type":[0,0,0,0,0,0,0,0,0,0,0,0,0,0,0,0,0,0,0,0,0,0,0,0,0,0,0,0,0,0,0,0,0,0,0,0,0,0,0,0,0,0,0,0,0,0,0,0,0,0,0,0,0,0,0,0,0,0,0,0,0,0,0],"sum_hessian":[2.57637E5,2.49829E5,7.808E3,2.42021E5,7.808E3,5.195E3,2.613E3,2.34216E5,7.805E3,6.165E3,1.643E3,2.878E3,2.317E3,2.194E3,4.19E2,2.26408E5,7.808E3,5.491E3,2.314E3,1.94E2,5.971E3,8.36E2,8.07E2,1.338E3,1.54E3,1.738E3,5.79E2,4.73E2,1.721E3,3.78E2,4.1E1,2.186E5,7.808E3,6.188E3,1.62E3,3.722E3,1.769E3,4.89E2,1.825E3,8.5E1,1.09E2,3.88E2,5.583E3,3.92E2,4.44E2,1.79E2,6.28E2,1.144E3,1.94E2,1.152E3,3.88E2,1.156E3,5.82E2,3.85E2,1.94E2,3.61E2,1.12E2,1.04E2,1.617E3,1.22E2,2.56E2,1.8E1,2.3E1],"tree_param":{"num_deleted":"0","num_feature":"90","num_nodes":"63","size_leaf_vector":"0"}},{"base_weights":[-3.9913677E-2,-4.8764218E-2,2.4324295E-1,-5.579824E-2,1.6924544E-1,1.04487985E-1,5.0501776E-1,-6.963358E-2,4.9554817E-3,6.9159134E-3,3.3480635E-1,5.6689255E-2,4.7513837E-1,-5.111218E-1,5.837283E-1,-7.3534034E-2,4.73732E-2,-1.3122392E-2,5.465901E-1,-2.8346109E-3,1.5996196E0,2.114484E-1,8.809573E-1,-1.994368E-2,2.560362E-1,3.7758532E-1,1.1209515E0,-1.3899306E0,-4.2480412E-1,7.188461E-1,-1.8300979E-1,-1.0818868E-2,-7.9852134E-2,2.6910296E-2,6.9417787E-1,-3.0811474E-2,5.002979E-1,8.40979E-1,3.4823143E-1,7.79798E-2,-1.5169504E-1,1.1004426E0,2.9137435E0,-7.739238E-1,2.4262513E-1,1.8810978E0,5.9232324E-1,1.3680127E-1,-1.9376601E-1,1.51475E-1,8.2417953E-1,1.0437845E0,2.960467E-1,2.2425451E0,5.271793E-1,-1.5484297E0,-4.8770094E-1,-6.376784E-1,-2.1656777E-1,3.7893504E-1,1.0651519E0,-8.328613E-2,-3.8826606E-1],"categories":[],"categories_nodes":[],"categories_segments":[],"categories_sizes":[],"default_left":[1,1,1,1,1,1,1,1,1,1,1,1,1,1,1,1,1,1,1,1,1,1,1,1,1,1,1,1,1,1,1,0,0,0,0,0,0,0,0,0,0,0,0,0,0,0,0,0,0,0,0,0,0,0,0,0,0,0,0,0,0,0,0],"id":24,"left_children":[1,3,5,7,9,11,13,15,17,19,21,23,25,27,29,31,33,35,37,39,41,43,45,47,49,51,53,55,57,59,61,-1,-1,-1,-1,-1,-1,-1,-1,-1,-1,-1,-1,-1,-1,-1,-1,-1,-1,-1,-1,-1,-1,-1,-1,-1,-1,-1,-1,-1,-1,-1,-1],"loss_changes":[6.4567554E2,3.8312006E2,2.8359E2,2.0343158E2,2.0986786E2,9.041638E1,2.1664673E2,8.996954E1,4.3958157E2,6.125366E1,2.6027414E2,6.91009E1,3.630635E1,1.4201622E1,2.6027118E2,7.5590454E1,8.415913E1,3.9457095E2,8.437927E1,4.718173E1,1.2537121E1,9.711157E1,2.0442218E2,8.906569E1,7.448877E1,2.7286041E1,4.9431572E1,1.6758728E0,7.7966385E0,2.5091394E2,7.6844406E0,0E0,0E0,0E0,0E0,0E0,0E0,0E0,0E0,0E0,0E0,0E0,0E0,0E0,0E0,0E0,0E0,0E0,0E0,0E0,0E0,0E0,0E0,0E0,0E0,0E0,0E0,0E0,0E0,0E0,0E0,0E0,0E0],"parents":[2147483647,0,0,1,1,2,2,3,3,4,4,5,5,6,6,7,7,8,8,9,9,10,10,11,11,12,12,13,13,14,14,15,15,16,16,17,17,18,18,19,19,20,20,21,21,22,22,23,23,24,24,25,25,26,26,27,27,28,28,29,29,30,30],"right_children":[2,4,6,8,10,12,14,16,18,20,22,24,26,28,30,32,34,36,38,40,42,44,46,48,50,52,54,56,58,60,62,-1,-1,-1,-1,-1,-1,-1,-1,-1,-1,-1,-1,-1,-1,-1,-1,-1,-1,-1,-1,-1,-1,-1,-1,-1,-1,-1,-1,-1,-1,-1,-1],"split_conditions":[5E-1,5E-1,5E-1,1.058363E0,5E-1,5E-1,-1.6347821E0,5E-1,5E-1,4.7558355E0,1.058363E0,5.774442E-1,5E-1,-1.199508E0,1.2662387E0,-1.5065371E0,5E-1,5E-1,8.419527E-1,1.0635927E0,5.2393303E0,-1.6347821E0,-1.1105297E0,-1.5996458E-1,5E-1,-1.3280344E0,3.5301542E-1,5E-1,-5.0654274E-1,5E-1,8.470123E-1,-1.0818868E-3,-7.985214E-3,2.6910296E-3,6.941779E-2,-3.0811473E-3,5.0029792E-2,8.40979E-2,3.4823146E-2,7.79798E-3,-1.5169504E-2,1.1004426E-1,2.9137436E-1,-7.7392384E-2,2.4262514E-2,1.8810979E-1,5.9232324E-2,1.3680127E-2,-1.9376602E-2,1.51475E-2,8.241796E-2,1.04378454E-1,2.9604672E-2,2.2425452E-1,5.271793E-2,-1.5484297E-1,-4.8770096E-2,-6.376784E-2,-2.1656778E-2,3.7893504E-2,1.0651519E-1,-8.328613E-3,-3.8826607E-2],"split_indices":[18,9,73,0,88,83,0,13,14,1,0,0,77,4,2,0,41,36,2,3,1,0,5,0,84,5,0,87,3,88,5,0,0,0,0,0,0,0,0,0,0,0,0,0,0,0,0,0,0,0,0,0,0,0,0,0,0,0,0,0,0,0,0],"split_type":[0,0,0,0,0,0,0,0,0,0,0,0,0,0,0,0,0,0,0,0,0,0,0,0,0,0,0,0,0,0,0,0,0,0,0,0,0,0,0,0,0,0,0,0,0,0,0,0,0,0,0,0,0,0,0,0,0,0,0,0,0,0,0],"sum_hessian":[2.57637E5,2.49829E5,7.808E3,2.42021E5,7.808E3,5.104E3,2.704E3,1.97129E5,4.4892E4,3.943E3,3.865E3,4.522E3,5.82E2,1.94E2,2.51E3,1.9077E5,6.359E3,4.3443E4,1.449E3,3.92E3,2.3E1,3.154E3,7.11E2,3.267E3,1.255E3,5.07E2,7.5E1,1.6E1,1.78E2,2.134E3,3.76E2,1.746E4,1.7331E5,6.165E3,1.94E2,4.1997E4,1.446E3,5.82E2,8.67E2,2.541E3,1.379E3,1.8E1,5E0,9.6E1,3.058E3,1.58E2,5.53E2,1.718E3,1.549E3,1.061E3,1.94E2,5.4E1,4.53E2,2.5E1,5E1,1.3E1,3E0,8.7E1,9.1E1,1.078E3,1.056E3,2.54E2,1.22E2],"tree_param":{"num_deleted":"0","num_feature":"90","num_nodes":"63","size_leaf_vector":"0"}},{"base_weights":[-3.5917927E-2,-4.4822935E-2,2.0916948E-1,-5.7354447E-2,2.0268288E-2,9.81677E-2,4.1827655E-1,-6.205549E-2,8.780589E-2,8.0238545E-4,6.2234783E-1,1.9090761E-1,-9.002715E-2,5.077835E-1,-1.5302463E-1,-6.617681E-2,7.604667E-2,1.6967846E-1,-8.440896E-2,-1.2946381E-2,4.8432338E-1,3.9347792E-1,1.6212386E0,6.8561906E-1,1.4477475E-1,-2.474984E-3,-4.3013588E-1,1.241433E0,4.372403E-1,-1.2569194E-1,-2.5480092E-1,-7.1311384E-2,2.4461955E-2,2.6277835E-2,3.2931733E-1,1.1303432E-1,3.2115242E-1,-9.449405E-2,3.5712462E-2,-2.4138348E-2,4.3933114E-1,7.652316E-1,-4.6044272E-1,-3.3910908E-2,5.6812495E-1,4.427628E0,1.2182943E0,4.4066796E-1,3.1775966E0,2.7074948E-1,-1.3569294E-2,-1.325999E-1,2.3864341E-1,-1.6787326E-1,-4.903267E-1,9.351332E-1,3.9208794E0,3.3245078E-1,9.5285183E-1,-1.0771264E-1,-1.9036976E-1,-3.3094913E-1,-1.4868912E-1],"categories":[],"categories_nodes":[],"categories_segments":[],"categories_sizes":[],"default_left":[1,1,1,1,1,1,1,1,1,1,1,1,1,1,1,1,1,1,1,1,1,1,1,1,1,1,1,1,1,1,1,0,0,0,0,0,0,0,0,0,0,0,0,0,0,0,0,0,0,0,0,0,0,0,0,0,0,0,0,0,0,0,0],"id":25,"left_children":[1,3,5,7,9,11,13,15,17,19,21,23,25,27,29,31,33,35,37,39,41,43,45,47,49,51,53,55,57,59,61,-1,-1,-1,-1,-1,-1,-1,-1,-1,-1,-1,-1,-1,-1,-1,-1,-1,-1,-1,-1,-1,-1,-1,-1,-1,-1,-1,-1,-1,-1,-1,-1],"loss_changes":[5.6230566E2,2.027869E2,2.0962622E2,1.4226721E2,4.7039426E2,1.0302583E2,1.6023376E2,1.1493713E2,9.222618E1,2.5847342E2,2.8673248E2,9.01407E1,5.8034813E1,1.39607E2,1.1502457E0,9.125635E1,7.375572E1,3.799935E1,2.5570803E0,1.9137987E2,2.8564932E2,7.645288E1,2.5921735E2,2.0430878E2,7.217317E1,4.869506E1,6.2162247E0,1.9084262E2,1.3324707E2,3.7137985E-1,6.6993093E-1,0E0,0E0,0E0,0E0,0E0,0E0,0E0,0E0,0E0,0E0,0E0,0E0,0E0,0E0,0E0,0E0,0E0,0E0,0E0,0E0,0E0,0E0,0E0,0E0,0E0,0E0,0E0,0E0,0E0,0E0,0E0,0E0],"parents":[2147483647,0,0,1,1,2,2,3,3,4,4,5,5,6,6,7,7,8,8,9,9,10,10,11,11,12,12,13,13,14,14,15,15,16,16,17,17,18,18,19,19,20,20,21,21,22,22,23,23,24,24,25,25,26,26,27,27,28,28,29,29,30,30],"right_children":[2,4,6,8,10,12,14,16,18,20,22,24,26,28,30,32,34,36,38,40,42,44,46,48,50,52,54,56,58,60,62,-1,-1,-1,-1,-1,-1,-1,-1,-1,-1,-1,-1,-1,-1,-1,-1,-1,-1,-1,-1,-1,-1,-1,-1,-1,-1,-1,-1,-1,-1,-1,-1],"split_conditions":[1.6614715E0,1.2676721E0,7.377504E-1,5E-1,5E-1,5E-1,5E-1,5E-1,5E-1,5E-1,1.058363E0,-1.3280344E0,5E-1,-1.3280344E0,1.3789754E0,